digraph Tree {
node [shape=box, style="filled, rounded", color="black", fontname=helvetica] ;
edge [fontname=helvetica] ;
0 [label=<CosSim &le; 0.893<br/>gini = 0.194<br/>samples = 29744<br/>value = [26505, 3239]>, fillcolor="#e89051"] ;
1 [label=<CosSim &le; 0.0<br/>gini = 0.164<br/>samples = 17969<br/>value = [16345, 1624]>, fillcolor="#e88e4d"] ;
0 -> 1 [labeldistance=2.5, labelangle=45, headlabel="True"] ;
2 [label=<dev2_2 &le; 0.0<br/>gini = 0.239<br/>samples = 2740<br/>value = [2360, 380]>, fillcolor="#e99559"] ;
1 -> 2 ;
3 [label=<dev1_4 &le; 0.659<br/>gini = 0.193<br/>samples = 2148<br/>value = [1916, 232]>, fillcolor="#e89051"] ;
2 -> 3 ;
4 [label=<dev1_3 &le; 0.816<br/>gini = 0.189<br/>samples = 2126<br/>value = [1902, 224]>, fillcolor="#e89050"] ;
3 -> 4 ;
5 [label=<dev2_4 &le; 0.361<br/>gini = 0.188<br/>samples = 2125<br/>value = [1902, 223]>, fillcolor="#e89050"] ;
4 -> 5 ;
6 [label=<gini = 0.187<br/>samples = 2124<br/>value = [1902, 222]>, fillcolor="#e89050"] ;
5 -> 6 ;
7 [label=<gini = 0.0<br/>samples = 1<br/>value = [0, 1]>, fillcolor="#399de5"] ;
5 -> 7 ;
8 [label=<gini = 0.0<br/>samples = 1<br/>value = [0, 1]>, fillcolor="#399de5"] ;
4 -> 8 ;
9 [label=<dev1_4 &le; 0.726<br/>gini = 0.463<br/>samples = 22<br/>value = [14, 8]>, fillcolor="#f4c9aa"] ;
3 -> 9 ;
10 [label=<dev1_1 &le; 0.566<br/>gini = 0.473<br/>samples = 13<br/>value = [5, 8]>, fillcolor="#b5daf5"] ;
9 -> 10 ;
11 [label=<gini = 0.397<br/>samples = 11<br/>value = [3, 8]>, fillcolor="#83c2ef"] ;
10 -> 11 ;
12 [label=<gini = 0.0<br/>samples = 2<br/>value = [2, 0]>, fillcolor="#e58139"] ;
10 -> 12 ;
13 [label=<gini = 0.0<br/>samples = 9<br/>value = [9, 0]>, fillcolor="#e58139"] ;
9 -> 13 ;
14 [label=<timestamp &le; 94.0<br/>gini = 0.375<br/>samples = 592<br/>value = [444, 148]>, fillcolor="#eeab7b"] ;
2 -> 14 ;
15 [label=<timestamp &le; 9.5<br/>gini = 0.175<br/>samples = 424<br/>value = [383, 41]>, fillcolor="#e88e4e"] ;
14 -> 15 ;
16 [label=<dev2_4 &le; 0.215<br/>gini = 0.276<br/>samples = 218<br/>value = [182, 36]>, fillcolor="#ea9a60"] ;
15 -> 16 ;
17 [label=<gini = 0.3<br/>samples = 196<br/>value = [160, 36]>, fillcolor="#eb9d66"] ;
16 -> 17 ;
18 [label=<gini = 0.0<br/>samples = 22<br/>value = [22, 0]>, fillcolor="#e58139"] ;
16 -> 18 ;
19 [label=<RPi_No &le; 101.0<br/>gini = 0.047<br/>samples = 206<br/>value = [201, 5]>, fillcolor="#e6843e"] ;
15 -> 19 ;
20 [label=<gini = 0.0<br/>samples = 168<br/>value = [168, 0]>, fillcolor="#e58139"] ;
19 -> 20 ;
21 [label=<gini = 0.229<br/>samples = 38<br/>value = [33, 5]>, fillcolor="#e99457"] ;
19 -> 21 ;
22 [label=<timestamp &le; 230.5<br/>gini = 0.463<br/>samples = 168<br/>value = [61, 107]>, fillcolor="#aad5f4"] ;
14 -> 22 ;
23 [label=<dev1_5 &le; 0.026<br/>gini = 0.059<br/>samples = 99<br/>value = [3, 96]>, fillcolor="#3fa0e6"] ;
22 -> 23 ;
24 [label=<gini = 0.02<br/>samples = 97<br/>value = [1, 96]>, fillcolor="#3b9ee5"] ;
23 -> 24 ;
25 [label=<gini = 0.0<br/>samples = 2<br/>value = [2, 0]>, fillcolor="#e58139"] ;
23 -> 25 ;
26 [label=<dev2_4 &le; 0.352<br/>gini = 0.268<br/>samples = 69<br/>value = [58, 11]>, fillcolor="#ea995f"] ;
22 -> 26 ;
27 [label=<gini = 0.324<br/>samples = 54<br/>value = [43, 11]>, fillcolor="#eca16c"] ;
26 -> 27 ;
28 [label=<gini = 0.0<br/>samples = 15<br/>value = [15, 0]>, fillcolor="#e58139"] ;
26 -> 28 ;
29 [label=<dev2_3 &le; 0.338<br/>gini = 0.15<br/>samples = 15229<br/>value = [13985, 1244]>, fillcolor="#e78c4b"] ;
1 -> 29 ;
30 [label=<dev1_3 &le; 0.232<br/>gini = 0.162<br/>samples = 13239<br/>value = [12059, 1180]>, fillcolor="#e88d4c"] ;
29 -> 30 ;
31 [label=<dev2_5 &le; 0.264<br/>gini = 0.188<br/>samples = 9046<br/>value = [8097, 949]>, fillcolor="#e89050"] ;
30 -> 31 ;
32 [label=<dev1_3 &le; 0.232<br/>gini = 0.203<br/>samples = 7574<br/>value = [6704, 870]>, fillcolor="#e89153"] ;
31 -> 32 ;
33 [label=<gini = 0.203<br/>samples = 7570<br/>value = [6704, 866]>, fillcolor="#e89153"] ;
32 -> 33 ;
34 [label=<gini = 0.0<br/>samples = 4<br/>value = [0, 4]>, fillcolor="#399de5"] ;
32 -> 34 ;
35 [label=<dev2_3 &le; 0.337<br/>gini = 0.102<br/>samples = 1472<br/>value = [1393, 79]>, fillcolor="#e68844"] ;
31 -> 35 ;
36 [label=<gini = 0.099<br/>samples = 1470<br/>value = [1393, 77]>, fillcolor="#e68844"] ;
35 -> 36 ;
37 [label=<gini = 0.0<br/>samples = 2<br/>value = [0, 2]>, fillcolor="#399de5"] ;
35 -> 37 ;
38 [label=<dev2_3 &le; 0.013<br/>gini = 0.104<br/>samples = 4193<br/>value = [3962, 231]>, fillcolor="#e78845"] ;
30 -> 38 ;
39 [label=<timestamp &le; 16.0<br/>gini = 0.041<br/>samples = 1948<br/>value = [1907, 41]>, fillcolor="#e6843d"] ;
38 -> 39 ;
40 [label=<gini = 0.444<br/>samples = 12<br/>value = [8, 4]>, fillcolor="#f2c09c"] ;
39 -> 40 ;
41 [label=<gini = 0.037<br/>samples = 1936<br/>value = [1899, 37]>, fillcolor="#e6833d"] ;
39 -> 41 ;
42 [label=<dev1_4 &le; 0.24<br/>gini = 0.155<br/>samples = 2245<br/>value = [2055, 190]>, fillcolor="#e78d4b"] ;
38 -> 42 ;
43 [label=<gini = 0.243<br/>samples = 616<br/>value = [529, 87]>, fillcolor="#e9965a"] ;
42 -> 43 ;
44 [label=<gini = 0.118<br/>samples = 1629<br/>value = [1526, 103]>, fillcolor="#e78a46"] ;
42 -> 44 ;
45 [label=<dev1_1 &le; 0.158<br/>gini = 0.062<br/>samples = 1990<br/>value = [1926, 64]>, fillcolor="#e68540"] ;
29 -> 45 ;
46 [label=<dev2_1 &le; 0.041<br/>gini = 0.034<br/>samples = 1518<br/>value = [1492, 26]>, fillcolor="#e5833c"] ;
45 -> 46 ;
47 [label=<dev2_4 &le; 0.226<br/>gini = 0.308<br/>samples = 21<br/>value = [17, 4]>, fillcolor="#eb9f68"] ;
46 -> 47 ;
48 [label=<gini = 0.494<br/>samples = 9<br/>value = [5, 4]>, fillcolor="#fae6d7"] ;
47 -> 48 ;
49 [label=<gini = 0.0<br/>samples = 12<br/>value = [12, 0]>, fillcolor="#e58139"] ;
47 -> 49 ;
50 [label=<dev2_5 &le; 0.293<br/>gini = 0.029<br/>samples = 1497<br/>value = [1475, 22]>, fillcolor="#e5833c"] ;
46 -> 50 ;
51 [label=<gini = 0.073<br/>samples = 420<br/>value = [404, 16]>, fillcolor="#e68641"] ;
50 -> 51 ;
52 [label=<gini = 0.011<br/>samples = 1077<br/>value = [1071, 6]>, fillcolor="#e5823a"] ;
50 -> 52 ;
53 [label=<dev1_2 &le; 0.086<br/>gini = 0.148<br/>samples = 472<br/>value = [434, 38]>, fillcolor="#e78c4a"] ;
45 -> 53 ;
54 [label=<dev1_5 &le; 0.213<br/>gini = 0.473<br/>samples = 13<br/>value = [8, 5]>, fillcolor="#f5d0b5"] ;
53 -> 54 ;
55 [label=<gini = 0.0<br/>samples = 6<br/>value = [6, 0]>, fillcolor="#e58139"] ;
54 -> 55 ;
56 [label=<gini = 0.408<br/>samples = 7<br/>value = [2, 5]>, fillcolor="#88c4ef"] ;
54 -> 56 ;
57 [label=<timestamp &le; 25.5<br/>gini = 0.133<br/>samples = 459<br/>value = [426, 33]>, fillcolor="#e78b48"] ;
53 -> 57 ;
58 [label=<gini = 0.42<br/>samples = 10<br/>value = [7, 3]>, fillcolor="#f0b78e"] ;
57 -> 58 ;
59 [label=<gini = 0.125<br/>samples = 449<br/>value = [419, 30]>, fillcolor="#e78a47"] ;
57 -> 59 ;
60 [label=<dev2_5 &le; 0.174<br/>gini = 0.237<br/>samples = 11775<br/>value = [10160, 1615]>, fillcolor="#e99558"] ;
0 -> 60 [labeldistance=2.5, labelangle=-45, headlabel="False"] ;
61 [label=<dev1_2 &le; 0.351<br/>gini = 0.2<br/>samples = 6815<br/>value = [6046, 769]>, fillcolor="#e89152"] ;
60 -> 61 ;
62 [label=<CosSim &le; 0.893<br/>gini = 0.208<br/>samples = 6099<br/>value = [5379, 720]>, fillcolor="#e89254"] ;
61 -> 62 ;
63 [label=<gini = 0.0<br/>samples = 2<br/>value = [0, 2]>, fillcolor="#399de5"] ;
62 -> 63 ;
64 [label=<dev2_2 &le; 0.158<br/>gini = 0.208<br/>samples = 6097<br/>value = [5379, 718]>, fillcolor="#e89253"] ;
62 -> 64 ;
65 [label=<dev2_1 &le; 0.165<br/>gini = 0.199<br/>samples = 5331<br/>value = [4732, 599]>, fillcolor="#e89152"] ;
64 -> 65 ;
66 [label=<gini = 0.205<br/>samples = 4996<br/>value = [4416, 580]>, fillcolor="#e89253"] ;
65 -> 66 ;
67 [label=<gini = 0.107<br/>samples = 335<br/>value = [316, 19]>, fillcolor="#e78945"] ;
65 -> 67 ;
68 [label=<timestamp &le; 83.5<br/>gini = 0.262<br/>samples = 766<br/>value = [647, 119]>, fillcolor="#ea985d"] ;
64 -> 68 ;
69 [label=<gini = 0.35<br/>samples = 261<br/>value = [202, 59]>, fillcolor="#eda673"] ;
68 -> 69 ;
70 [label=<gini = 0.209<br/>samples = 505<br/>value = [445, 60]>, fillcolor="#e99254"] ;
68 -> 70 ;
71 [label=<dev2_1 &le; 0.207<br/>gini = 0.128<br/>samples = 716<br/>value = [667, 49]>, fillcolor="#e78a48"] ;
61 -> 71 ;
72 [label=<CosSim &le; 0.894<br/>gini = 0.057<br/>samples = 372<br/>value = [361, 11]>, fillcolor="#e6853f"] ;
71 -> 72 ;
73 [label=<dev2_3 &le; 0.064<br/>gini = 0.444<br/>samples = 3<br/>value = [1, 2]>, fillcolor="#9ccef2"] ;
72 -> 73 ;
74 [label=<gini = 0.0<br/>samples = 1<br/>value = [1, 0]>, fillcolor="#e58139"] ;
73 -> 74 ;
75 [label=<gini = 0.0<br/>samples = 2<br/>value = [0, 2]>, fillcolor="#399de5"] ;
73 -> 75 ;
76 [label=<dev1_3 &le; 0.211<br/>gini = 0.048<br/>samples = 369<br/>value = [360, 9]>, fillcolor="#e6843e"] ;
72 -> 76 ;
77 [label=<gini = 0.198<br/>samples = 27<br/>value = [24, 3]>, fillcolor="#e89152"] ;
76 -> 77 ;
78 [label=<gini = 0.034<br/>samples = 342<br/>value = [336, 6]>, fillcolor="#e5833d"] ;
76 -> 78 ;
79 [label=<dev2_3 &le; 0.075<br/>gini = 0.197<br/>samples = 344<br/>value = [306, 38]>, fillcolor="#e89152"] ;
71 -> 79 ;
80 [label=<dev1_1 &le; 0.581<br/>gini = 0.494<br/>samples = 9<br/>value = [5, 4]>, fillcolor="#fae6d7"] ;
79 -> 80 ;
81 [label=<gini = 0.0<br/>samples = 4<br/>value = [4, 0]>, fillcolor="#e58139"] ;
80 -> 81 ;
82 [label=<gini = 0.32<br/>samples = 5<br/>value = [1, 4]>, fillcolor="#6ab6ec"] ;
80 -> 82 ;
83 [label=<dev1_5 &le; 0.027<br/>gini = 0.182<br/>samples = 335<br/>value = [301, 34]>, fillcolor="#e88f4f"] ;
79 -> 83 ;
84 [label=<gini = 0.0<br/>samples = 1<br/>value = [0, 1]>, fillcolor="#399de5"] ;
83 -> 84 ;
85 [label=<gini = 0.178<br/>samples = 334<br/>value = [301, 33]>, fillcolor="#e88f4f"] ;
83 -> 85 ;
86 [label=<CosSim &le; 0.978<br/>gini = 0.283<br/>samples = 4960<br/>value = [4114, 846]>, fillcolor="#ea9b62"] ;
60 -> 86 ;
87 [label=<dev2_3 &le; 0.436<br/>gini = 0.256<br/>samples = 3699<br/>value = [3141, 558]>, fillcolor="#ea975c"] ;
86 -> 87 ;
88 [label=<CosSim &le; 0.893<br/>gini = 0.284<br/>samples = 2590<br/>value = [2147, 443]>, fillcolor="#ea9b62"] ;
87 -> 88 ;
89 [label=<dev2_5 &le; 0.301<br/>gini = 0.375<br/>samples = 8<br/>value = [2, 6]>, fillcolor="#7bbeee"] ;
88 -> 89 ;
90 [label=<gini = 0.0<br/>samples = 5<br/>value = [0, 5]>, fillcolor="#399de5"] ;
89 -> 90 ;
91 [label=<gini = 0.444<br/>samples = 3<br/>value = [2, 1]>, fillcolor="#f2c09c"] ;
89 -> 91 ;
92 [label=<dev1_3 &le; 0.107<br/>gini = 0.281<br/>samples = 2582<br/>value = [2145, 437]>, fillcolor="#ea9b61"] ;
88 -> 92 ;
93 [label=<gini = 0.17<br/>samples = 310<br/>value = [281, 29]>, fillcolor="#e88e4d"] ;
92 -> 93 ;
94 [label=<gini = 0.295<br/>samples = 2272<br/>value = [1864, 408]>, fillcolor="#eb9d64"] ;
92 -> 94 ;
95 [label=<dev1_2 &le; 0.307<br/>gini = 0.186<br/>samples = 1109<br/>value = [994, 115]>, fillcolor="#e89050"] ;
87 -> 95 ;
96 [label=<dev1_4 &le; 0.325<br/>gini = 0.092<br/>samples = 537<br/>value = [511, 26]>, fillcolor="#e68743"] ;
95 -> 96 ;
97 [label=<gini = 0.041<br/>samples = 381<br/>value = [373, 8]>, fillcolor="#e6843d"] ;
96 -> 97 ;
98 [label=<gini = 0.204<br/>samples = 156<br/>value = [138, 18]>, fillcolor="#e89153"] ;
96 -> 98 ;
99 [label=<dev1_2 &le; 0.309<br/>gini = 0.263<br/>samples = 572<br/>value = [483, 89]>, fillcolor="#ea985d"] ;
95 -> 99 ;
100 [label=<gini = 0.0<br/>samples = 2<br/>value = [0, 2]>, fillcolor="#399de5"] ;
99 -> 100 ;
101 [label=<gini = 0.259<br/>samples = 570<br/>value = [483, 87]>, fillcolor="#ea985d"] ;
99 -> 101 ;
102 [label=<dev1_2 &le; 0.366<br/>gini = 0.352<br/>samples = 1261<br/>value = [973, 288]>, fillcolor="#eda674"] ;
86 -> 102 ;
103 [label=<dev1_5 &le; 0.566<br/>gini = 0.288<br/>samples = 540<br/>value = [446, 94]>, fillcolor="#ea9c63"] ;
102 -> 103 ;
104 [label=<dev2_1 &le; 0.344<br/>gini = 0.262<br/>samples = 516<br/>value = [436, 80]>, fillcolor="#ea985d"] ;
103 -> 104 ;
105 [label=<gini = 0.337<br/>samples = 228<br/>value = [179, 49]>, fillcolor="#eca36f"] ;
104 -> 105 ;
106 [label=<gini = 0.192<br/>samples = 288<br/>value = [257, 31]>, fillcolor="#e89051"] ;
104 -> 106 ;
107 [label=<dev1_1 &le; 0.249<br/>gini = 0.486<br/>samples = 24<br/>value = [10, 14]>, fillcolor="#c6e3f8"] ;
103 -> 107 ;
108 [label=<gini = 0.245<br/>samples = 7<br/>value = [6, 1]>, fillcolor="#e9965a"] ;
107 -> 108 ;
109 [label=<gini = 0.36<br/>samples = 17<br/>value = [4, 13]>, fillcolor="#76bbed"] ;
107 -> 109 ;
110 [label=<timestamp &le; 46.5<br/>gini = 0.393<br/>samples = 721<br/>value = [527, 194]>, fillcolor="#efaf82"] ;
102 -> 110 ;
111 [label=<CosSim &le; 0.978<br/>gini = 0.232<br/>samples = 142<br/>value = [123, 19]>, fillcolor="#e99458"] ;
110 -> 111 ;
112 [label=<gini = 0.0<br/>samples = 3<br/>value = [0, 3]>, fillcolor="#399de5"] ;
111 -> 112 ;
113 [label=<gini = 0.204<br/>samples = 139<br/>value = [123, 16]>, fillcolor="#e89153"] ;
111 -> 113 ;
114 [label=<dev2_3 &le; 0.415<br/>gini = 0.422<br/>samples = 579<br/>value = [404, 175]>, fillcolor="#f0b88f"] ;
110 -> 114 ;
115 [label=<gini = 0.34<br/>samples = 239<br/>value = [187, 52]>, fillcolor="#eca470"] ;
114 -> 115 ;
116 [label=<gini = 0.462<br/>samples = 340<br/>value = [217, 123]>, fillcolor="#f4c8a9"] ;
114 -> 116 ;
}