digraph Tree {
node [shape=box, style="filled, rounded", color="black", fontname=helvetica] ;
edge [fontname=helvetica] ;
0 [label=<CosSim &le; 0.893<br/>entropy = 0.499<br/>samples = 29876<br/>value = [26602, 3274]>, fillcolor="#e89151"] ;
1 [label=<CosSim &le; 0.311<br/>entropy = 0.439<br/>samples = 18063<br/>value = [16425, 1638]>, fillcolor="#e88e4d"] ;
0 -> 1 [labeldistance=2.5, labelangle=45, headlabel="True"] ;
2 [label=<timestamp &le; 108.5<br/>entropy = 0.55<br/>samples = 4191<br/>value = [3658, 533]>, fillcolor="#e99356"] ;
1 -> 2 ;
3 [label=<RPi_No &le; 100.5<br/>entropy = 0.458<br/>samples = 1998<br/>value = [1805, 193]>, fillcolor="#e88e4e"] ;
2 -> 3 ;
4 [label=<timestamp &le; 8.5<br/>entropy = 0.363<br/>samples = 693<br/>value = [645, 48]>, fillcolor="#e78a48"] ;
3 -> 4 ;
5 [label=<CosSim &le; 0.28<br/>entropy = 0.522<br/>samples = 230<br/>value = [203, 27]>, fillcolor="#e89253"] ;
4 -> 5 ;
6 [label=<CosSim &le; 0.059<br/>entropy = 0.482<br/>samples = 221<br/>value = [198, 23]>, fillcolor="#e89050"] ;
5 -> 6 ;
7 [label=<timestamp &le; 1.5<br/>entropy = 0.498<br/>samples = 210<br/>value = [187, 23]>, fillcolor="#e89051"] ;
6 -> 7 ;
8 [label=<timestamp &le; 0.5<br/>entropy = 0.428<br/>samples = 80<br/>value = [73, 7]>, fillcolor="#e78d4c"] ;
7 -> 8 ;
9 [label=<entropy = 0.461<br/>samples = 41<br/>value = [37, 4]>, fillcolor="#e88f4e"] ;
8 -> 9 ;
10 [label=<entropy = 0.391<br/>samples = 39<br/>value = [36, 3]>, fillcolor="#e78c49"] ;
8 -> 10 ;
11 [label=<timestamp &le; 3.5<br/>entropy = 0.538<br/>samples = 130<br/>value = [114, 16]>, fillcolor="#e99355"] ;
7 -> 11 ;
12 [label=<timestamp &le; 2.5<br/>entropy = 0.592<br/>samples = 56<br/>value = [48, 8]>, fillcolor="#e9965a"] ;
11 -> 12 ;
13 [label=<entropy = 0.605<br/>samples = 27<br/>value = [23, 4]>, fillcolor="#ea975b"] ;
12 -> 13 ;
14 [label=<entropy = 0.579<br/>samples = 29<br/>value = [25, 4]>, fillcolor="#e99559"] ;
12 -> 14 ;
15 [label=<timestamp &le; 4.5<br/>entropy = 0.494<br/>samples = 74<br/>value = [66, 8]>, fillcolor="#e89051"] ;
11 -> 15 ;
16 [label=<entropy = 0.0<br/>samples = 14<br/>value = [14, 0]>, fillcolor="#e58139"] ;
15 -> 16 ;
17 [label=<timestamp &le; 5.5<br/>entropy = 0.567<br/>samples = 60<br/>value = [52, 8]>, fillcolor="#e99457"] ;
15 -> 17 ;
18 [label=<entropy = 0.544<br/>samples = 16<br/>value = [14, 2]>, fillcolor="#e99355"] ;
17 -> 18 ;
19 [label=<timestamp &le; 6.5<br/>entropy = 0.575<br/>samples = 44<br/>value = [38, 6]>, fillcolor="#e99558"] ;
17 -> 19 ;
20 [label=<entropy = 0.567<br/>samples = 15<br/>value = [13, 2]>, fillcolor="#e99457"] ;
19 -> 20 ;
21 [label=<timestamp &le; 7.5<br/>entropy = 0.579<br/>samples = 29<br/>value = [25, 4]>, fillcolor="#e99559"] ;
19 -> 21 ;
22 [label=<entropy = 0.592<br/>samples = 14<br/>value = [12, 2]>, fillcolor="#e9965a"] ;
21 -> 22 ;
23 [label=<entropy = 0.567<br/>samples = 15<br/>value = [13, 2]>, fillcolor="#e99457"] ;
21 -> 23 ;
24 [label=<entropy = 0.0<br/>samples = 11<br/>value = [11, 0]>, fillcolor="#e58139"] ;
6 -> 24 ;
25 [label=<CosSim &le; 0.303<br/>entropy = 0.991<br/>samples = 9<br/>value = [5, 4]>, fillcolor="#fae6d7"] ;
5 -> 25 ;
26 [label=<timestamp &le; 4.5<br/>entropy = 1.0<br/>samples = 8<br/>value = [4, 4]>, fillcolor="#ffffff"] ;
25 -> 26 ;
27 [label=<entropy = 0.0<br/>samples = 1<br/>value = [0, 1]>, fillcolor="#399de5"] ;
26 -> 27 ;
28 [label=<timestamp &le; 7.5<br/>entropy = 0.985<br/>samples = 7<br/>value = [4, 3]>, fillcolor="#f8e0ce"] ;
26 -> 28 ;
29 [label=<entropy = 0.918<br/>samples = 3<br/>value = [2, 1]>, fillcolor="#f2c09c"] ;
28 -> 29 ;
30 [label=<entropy = 1.0<br/>samples = 4<br/>value = [2, 2]>, fillcolor="#ffffff"] ;
28 -> 30 ;
31 [label=<entropy = 0.0<br/>samples = 1<br/>value = [1, 0]>, fillcolor="#e58139"] ;
25 -> 31 ;
32 [label=<CosSim &le; 0.055<br/>entropy = 0.266<br/>samples = 463<br/>value = [442, 21]>, fillcolor="#e68742"] ;
4 -> 32 ;
33 [label=<timestamp &le; 9.5<br/>entropy = 0.04<br/>samples = 232<br/>value = [231, 1]>, fillcolor="#e5823a"] ;
32 -> 33 ;
34 [label=<entropy = 0.337<br/>samples = 16<br/>value = [15, 1]>, fillcolor="#e78946"] ;
33 -> 34 ;
35 [label=<entropy = 0.0<br/>samples = 216<br/>value = [216, 0]>, fillcolor="#e58139"] ;
33 -> 35 ;
36 [label=<CosSim &le; 0.06<br/>entropy = 0.425<br/>samples = 231<br/>value = [211, 20]>, fillcolor="#e78d4c"] ;
32 -> 36 ;
37 [label=<entropy = 0.0<br/>samples = 1<br/>value = [0, 1]>, fillcolor="#399de5"] ;
36 -> 37 ;
38 [label=<CosSim &le; 0.282<br/>entropy = 0.411<br/>samples = 230<br/>value = [211, 19]>, fillcolor="#e78c4b"] ;
36 -> 38 ;
39 [label=<CosSim &le; 0.182<br/>entropy = 0.444<br/>samples = 206<br/>value = [187, 19]>, fillcolor="#e88e4d"] ;
38 -> 39 ;
40 [label=<timestamp &le; 27.5<br/>entropy = 0.235<br/>samples = 78<br/>value = [75, 3]>, fillcolor="#e68641"] ;
39 -> 40 ;
41 [label=<entropy = 0.0<br/>samples = 21<br/>value = [21, 0]>, fillcolor="#e58139"] ;
40 -> 41 ;
42 [label=<CosSim &le; 0.156<br/>entropy = 0.297<br/>samples = 57<br/>value = [54, 3]>, fillcolor="#e68844"] ;
40 -> 42 ;
43 [label=<CosSim &le; 0.152<br/>entropy = 0.371<br/>samples = 42<br/>value = [39, 3]>, fillcolor="#e78b48"] ;
42 -> 43 ;
44 [label=<timestamp &le; 32.0<br/>entropy = 0.281<br/>samples = 41<br/>value = [39, 2]>, fillcolor="#e68743"] ;
43 -> 44 ;
45 [label=<entropy = 0.722<br/>samples = 5<br/>value = [4, 1]>, fillcolor="#eca06a"] ;
44 -> 45 ;
46 [label=<timestamp &le; 83.0<br/>entropy = 0.183<br/>samples = 36<br/>value = [35, 1]>, fillcolor="#e6853f"] ;
44 -> 46 ;
47 [label=<entropy = 0.0<br/>samples = 25<br/>value = [25, 0]>, fillcolor="#e58139"] ;
46 -> 47 ;
48 [label=<CosSim &le; 0.134<br/>entropy = 0.439<br/>samples = 11<br/>value = [10, 1]>, fillcolor="#e88e4d"] ;
46 -> 48 ;
49 [label=<CosSim &le; 0.132<br/>entropy = 0.811<br/>samples = 4<br/>value = [3, 1]>, fillcolor="#eeab7b"] ;
48 -> 49 ;
50 [label=<entropy = 0.0<br/>samples = 3<br/>value = [3, 0]>, fillcolor="#e58139"] ;
49 -> 50 ;
51 [label=<entropy = 0.0<br/>samples = 1<br/>value = [0, 1]>, fillcolor="#399de5"] ;
49 -> 51 ;
52 [label=<entropy = 0.0<br/>samples = 7<br/>value = [7, 0]>, fillcolor="#e58139"] ;
48 -> 52 ;
53 [label=<entropy = 0.0<br/>samples = 1<br/>value = [0, 1]>, fillcolor="#399de5"] ;
43 -> 53 ;
54 [label=<entropy = 0.0<br/>samples = 15<br/>value = [15, 0]>, fillcolor="#e58139"] ;
42 -> 54 ;
55 [label=<CosSim &le; 0.278<br/>entropy = 0.544<br/>samples = 128<br/>value = [112, 16]>, fillcolor="#e99355"] ;
39 -> 55 ;
56 [label=<timestamp &le; 68.5<br/>entropy = 0.524<br/>samples = 127<br/>value = [112, 15]>, fillcolor="#e89254"] ;
55 -> 56 ;
57 [label=<CosSim &le; 0.196<br/>entropy = 0.595<br/>samples = 97<br/>value = [83, 14]>, fillcolor="#e9965a"] ;
56 -> 57 ;
58 [label=<CosSim &le; 0.19<br/>entropy = 0.755<br/>samples = 23<br/>value = [18, 5]>, fillcolor="#eca470"] ;
57 -> 58 ;
59 [label=<timestamp &le; 13.0<br/>entropy = 0.503<br/>samples = 18<br/>value = [16, 2]>, fillcolor="#e89152"] ;
58 -> 59 ;
60 [label=<entropy = 0.918<br/>samples = 3<br/>value = [2, 1]>, fillcolor="#f2c09c"] ;
59 -> 60 ;
61 [label=<timestamp &le; 38.0<br/>entropy = 0.353<br/>samples = 15<br/>value = [14, 1]>, fillcolor="#e78a47"] ;
59 -> 61 ;
62 [label=<entropy = 0.0<br/>samples = 8<br/>value = [8, 0]>, fillcolor="#e58139"] ;
61 -> 62 ;
63 [label=<timestamp &le; 57.5<br/>entropy = 0.592<br/>samples = 7<br/>value = [6, 1]>, fillcolor="#e9965a"] ;
61 -> 63 ;
64 [label=<entropy = 0.65<br/>samples = 6<br/>value = [5, 1]>, fillcolor="#ea9a61"] ;
63 -> 64 ;
65 [label=<entropy = 0.0<br/>samples = 1<br/>value = [1, 0]>, fillcolor="#e58139"] ;
63 -> 65 ;
66 [label=<CosSim &le; 0.192<br/>entropy = 0.971<br/>samples = 5<br/>value = [2, 3]>, fillcolor="#bddef6"] ;
58 -> 66 ;
67 [label=<entropy = 0.0<br/>samples = 1<br/>value = [0, 1]>, fillcolor="#399de5"] ;
66 -> 67 ;
68 [label=<entropy = 1.0<br/>samples = 4<br/>value = [2, 2]>, fillcolor="#ffffff"] ;
66 -> 68 ;
69 [label=<CosSim &le; 0.218<br/>entropy = 0.534<br/>samples = 74<br/>value = [65, 9]>, fillcolor="#e99254"] ;
57 -> 69 ;
70 [label=<entropy = 0.0<br/>samples = 17<br/>value = [17, 0]>, fillcolor="#e58139"] ;
69 -> 70 ;
71 [label=<timestamp &le; 67.5<br/>entropy = 0.629<br/>samples = 57<br/>value = [48, 9]>, fillcolor="#ea995e"] ;
69 -> 71 ;
72 [label=<CosSim &le; 0.222<br/>entropy = 0.592<br/>samples = 56<br/>value = [48, 8]>, fillcolor="#e9965a"] ;
71 -> 72 ;
73 [label=<entropy = 0.0<br/>samples = 1<br/>value = [0, 1]>, fillcolor="#399de5"] ;
72 -> 73 ;
74 [label=<timestamp &le; 17.5<br/>entropy = 0.55<br/>samples = 55<br/>value = [48, 7]>, fillcolor="#e99356"] ;
72 -> 74 ;
75 [label=<entropy = 0.0<br/>samples = 8<br/>value = [8, 0]>, fillcolor="#e58139"] ;
74 -> 75 ;
76 [label=<CosSim &le; 0.258<br/>entropy = 0.607<br/>samples = 47<br/>value = [40, 7]>, fillcolor="#ea975c"] ;
74 -> 76 ;
77 [label=<CosSim &le; 0.252<br/>entropy = 0.559<br/>samples = 46<br/>value = [40, 6]>, fillcolor="#e99457"] ;
76 -> 77 ;
78 [label=<timestamp &le; 34.5<br/>entropy = 0.639<br/>samples = 37<br/>value = [31, 6]>, fillcolor="#ea995f"] ;
77 -> 78 ;
79 [label=<CosSim &le; 0.229<br/>entropy = 0.831<br/>samples = 19<br/>value = [14, 5]>, fillcolor="#eeae80"] ;
78 -> 79 ;
80 [label=<entropy = 0.0<br/>samples = 2<br/>value = [2, 0]>, fillcolor="#e58139"] ;
79 -> 80 ;
81 [label=<CosSim &le; 0.233<br/>entropy = 0.874<br/>samples = 17<br/>value = [12, 5]>, fillcolor="#f0b58b"] ;
79 -> 81 ;
82 [label=<entropy = 0.0<br/>samples = 1<br/>value = [0, 1]>, fillcolor="#399de5"] ;
81 -> 82 ;
83 [label=<CosSim &le; 0.241<br/>entropy = 0.811<br/>samples = 16<br/>value = [12, 4]>, fillcolor="#eeab7b"] ;
81 -> 83 ;
84 [label=<entropy = 0.918<br/>samples = 3<br/>value = [2, 1]>, fillcolor="#f2c09c"] ;
83 -> 84 ;
85 [label=<CosSim &le; 0.248<br/>entropy = 0.779<br/>samples = 13<br/>value = [10, 3]>, fillcolor="#eda774"] ;
83 -> 85 ;
86 [label=<entropy = 0.0<br/>samples = 2<br/>value = [2, 0]>, fillcolor="#e58139"] ;
85 -> 86 ;
87 [label=<timestamp &le; 26.5<br/>entropy = 0.845<br/>samples = 11<br/>value = [8, 3]>, fillcolor="#efb083"] ;
85 -> 87 ;
88 [label=<entropy = 0.863<br/>samples = 7<br/>value = [5, 2]>, fillcolor="#efb388"] ;
87 -> 88 ;
89 [label=<entropy = 0.811<br/>samples = 4<br/>value = [3, 1]>, fillcolor="#eeab7b"] ;
87 -> 89 ;
90 [label=<timestamp &le; 52.0<br/>entropy = 0.31<br/>samples = 18<br/>value = [17, 1]>, fillcolor="#e78845"] ;
78 -> 90 ;
91 [label=<timestamp &le; 48.0<br/>entropy = 0.439<br/>samples = 11<br/>value = [10, 1]>, fillcolor="#e88e4d"] ;
90 -> 91 ;
92 [label=<entropy = 0.0<br/>samples = 3<br/>value = [3, 0]>, fillcolor="#e58139"] ;
91 -> 92 ;
93 [label=<entropy = 0.544<br/>samples = 8<br/>value = [7, 1]>, fillcolor="#e99355"] ;
91 -> 93 ;
94 [label=<entropy = 0.0<br/>samples = 7<br/>value = [7, 0]>, fillcolor="#e58139"] ;
90 -> 94 ;
95 [label=<entropy = 0.0<br/>samples = 9<br/>value = [9, 0]>, fillcolor="#e58139"] ;
77 -> 95 ;
96 [label=<entropy = 0.0<br/>samples = 1<br/>value = [0, 1]>, fillcolor="#399de5"] ;
76 -> 96 ;
97 [label=<entropy = 0.0<br/>samples = 1<br/>value = [0, 1]>, fillcolor="#399de5"] ;
71 -> 97 ;
98 [label=<CosSim &le; 0.268<br/>entropy = 0.211<br/>samples = 30<br/>value = [29, 1]>, fillcolor="#e68540"] ;
56 -> 98 ;
99 [label=<entropy = 0.0<br/>samples = 25<br/>value = [25, 0]>, fillcolor="#e58139"] ;
98 -> 99 ;
100 [label=<entropy = 0.722<br/>samples = 5<br/>value = [4, 1]>, fillcolor="#eca06a"] ;
98 -> 100 ;
101 [label=<entropy = 0.0<br/>samples = 1<br/>value = [0, 1]>, fillcolor="#399de5"] ;
55 -> 101 ;
102 [label=<entropy = 0.0<br/>samples = 24<br/>value = [24, 0]>, fillcolor="#e58139"] ;
38 -> 102 ;
103 [label=<timestamp &le; 97.5<br/>entropy = 0.503<br/>samples = 1305<br/>value = [1160, 145]>, fillcolor="#e89152"] ;
3 -> 103 ;
104 [label=<CosSim &le; 0.054<br/>entropy = 0.508<br/>samples = 1286<br/>value = [1141, 145]>, fillcolor="#e89152"] ;
103 -> 104 ;
105 [label=<timestamp &le; 49.5<br/>entropy = 0.48<br/>samples = 967<br/>value = [867, 100]>, fillcolor="#e89050"] ;
104 -> 105 ;
106 [label=<CosSim &le; 0.027<br/>entropy = 0.493<br/>samples = 927<br/>value = [827, 100]>, fillcolor="#e89051"] ;
105 -> 106 ;
107 [label=<timestamp &le; 18.5<br/>entropy = 0.484<br/>samples = 897<br/>value = [803, 94]>, fillcolor="#e89050"] ;
106 -> 107 ;
108 [label=<timestamp &le; 5.5<br/>entropy = 0.511<br/>samples = 431<br/>value = [382, 49]>, fillcolor="#e89152"] ;
107 -> 108 ;
109 [label=<timestamp &le; 1.5<br/>entropy = 0.443<br/>samples = 174<br/>value = [158, 16]>, fillcolor="#e88e4d"] ;
108 -> 109 ;
110 [label=<timestamp &le; 0.5<br/>entropy = 0.474<br/>samples = 69<br/>value = [62, 7]>, fillcolor="#e88f4f"] ;
109 -> 110 ;
111 [label=<entropy = 0.469<br/>samples = 40<br/>value = [36, 4]>, fillcolor="#e88f4f"] ;
110 -> 111 ;
112 [label=<entropy = 0.48<br/>samples = 29<br/>value = [26, 3]>, fillcolor="#e89050"] ;
110 -> 112 ;
113 [label=<timestamp &le; 4.5<br/>entropy = 0.422<br/>samples = 105<br/>value = [96, 9]>, fillcolor="#e78d4c"] ;
109 -> 113 ;
114 [label=<timestamp &le; 2.5<br/>entropy = 0.414<br/>samples = 84<br/>value = [77, 7]>, fillcolor="#e78c4b"] ;
113 -> 114 ;
115 [label=<entropy = 0.439<br/>samples = 33<br/>value = [30, 3]>, fillcolor="#e88e4d"] ;
114 -> 115 ;
116 [label=<timestamp &le; 3.5<br/>entropy = 0.397<br/>samples = 51<br/>value = [47, 4]>, fillcolor="#e78c4a"] ;
114 -> 116 ;
117 [label=<entropy = 0.402<br/>samples = 25<br/>value = [23, 2]>, fillcolor="#e78c4a"] ;
116 -> 117 ;
118 [label=<entropy = 0.391<br/>samples = 26<br/>value = [24, 2]>, fillcolor="#e78c49"] ;
116 -> 118 ;
119 [label=<entropy = 0.454<br/>samples = 21<br/>value = [19, 2]>, fillcolor="#e88e4e"] ;
113 -> 119 ;
120 [label=<timestamp &le; 12.5<br/>entropy = 0.553<br/>samples = 257<br/>value = [224, 33]>, fillcolor="#e99456"] ;
108 -> 120 ;
121 [label=<timestamp &le; 6.5<br/>entropy = 0.572<br/>samples = 155<br/>value = [134, 21]>, fillcolor="#e99558"] ;
120 -> 121 ;
122 [label=<entropy = 0.559<br/>samples = 23<br/>value = [20, 3]>, fillcolor="#e99457"] ;
121 -> 122 ;
123 [label=<timestamp &le; 7.5<br/>entropy = 0.575<br/>samples = 132<br/>value = [114, 18]>, fillcolor="#e99558"] ;
121 -> 123 ;
124 [label=<entropy = 0.592<br/>samples = 21<br/>value = [18, 3]>, fillcolor="#e9965a"] ;
123 -> 124 ;
125 [label=<timestamp &le; 8.5<br/>entropy = 0.571<br/>samples = 111<br/>value = [96, 15]>, fillcolor="#e99558"] ;
123 -> 125 ;
126 [label=<entropy = 0.559<br/>samples = 23<br/>value = [20, 3]>, fillcolor="#e99457"] ;
125 -> 126 ;
127 [label=<timestamp &le; 11.5<br/>entropy = 0.575<br/>samples = 88<br/>value = [76, 12]>, fillcolor="#e99558"] ;
125 -> 127 ;
128 [label=<timestamp &le; 10.5<br/>entropy = 0.58<br/>samples = 65<br/>value = [56, 9]>, fillcolor="#e99559"] ;
127 -> 128 ;
129 [label=<timestamp &le; 9.5<br/>entropy = 0.575<br/>samples = 44<br/>value = [38, 6]>, fillcolor="#e99558"] ;
128 -> 129 ;
130 [label=<entropy = 0.575<br/>samples = 22<br/>value = [19, 3]>, fillcolor="#e99558"] ;
129 -> 130 ;
131 [label=<entropy = 0.575<br/>samples = 22<br/>value = [19, 3]>, fillcolor="#e99558"] ;
129 -> 131 ;
132 [label=<entropy = 0.592<br/>samples = 21<br/>value = [18, 3]>, fillcolor="#e9965a"] ;
128 -> 132 ;
133 [label=<entropy = 0.559<br/>samples = 23<br/>value = [20, 3]>, fillcolor="#e99457"] ;
127 -> 133 ;
134 [label=<timestamp &le; 14.5<br/>entropy = 0.523<br/>samples = 102<br/>value = [90, 12]>, fillcolor="#e89253"] ;
120 -> 134 ;
135 [label=<timestamp &le; 13.5<br/>entropy = 0.494<br/>samples = 37<br/>value = [33, 4]>, fillcolor="#e89051"] ;
134 -> 135 ;
136 [label=<entropy = 0.485<br/>samples = 19<br/>value = [17, 2]>, fillcolor="#e89050"] ;
135 -> 136 ;
137 [label=<entropy = 0.503<br/>samples = 18<br/>value = [16, 2]>, fillcolor="#e89152"] ;
135 -> 137 ;
138 [label=<timestamp &le; 17.5<br/>entropy = 0.538<br/>samples = 65<br/>value = [57, 8]>, fillcolor="#e99355"] ;
134 -> 138 ;
139 [label=<timestamp &le; 15.5<br/>entropy = 0.544<br/>samples = 48<br/>value = [42, 6]>, fillcolor="#e99355"] ;
138 -> 139 ;
140 [label=<entropy = 0.544<br/>samples = 16<br/>value = [14, 2]>, fillcolor="#e99355"] ;
139 -> 140 ;
141 [label=<timestamp &le; 16.5<br/>entropy = 0.544<br/>samples = 32<br/>value = [28, 4]>, fillcolor="#e99355"] ;
139 -> 141 ;
142 [label=<entropy = 0.544<br/>samples = 16<br/>value = [14, 2]>, fillcolor="#e99355"] ;
141 -> 142 ;
143 [label=<entropy = 0.544<br/>samples = 16<br/>value = [14, 2]>, fillcolor="#e99355"] ;
141 -> 143 ;
144 [label=<entropy = 0.523<br/>samples = 17<br/>value = [15, 2]>, fillcolor="#e89253"] ;
138 -> 144 ;
145 [label=<timestamp &le; 29.5<br/>entropy = 0.458<br/>samples = 466<br/>value = [421, 45]>, fillcolor="#e88e4e"] ;
107 -> 145 ;
146 [label=<timestamp &le; 28.5<br/>entropy = 0.371<br/>samples = 154<br/>value = [143, 11]>, fillcolor="#e78b48"] ;
145 -> 146 ;
147 [label=<timestamp &le; 24.5<br/>entropy = 0.397<br/>samples = 140<br/>value = [129, 11]>, fillcolor="#e78c4a"] ;
146 -> 147 ;
148 [label=<timestamp &le; 22.5<br/>entropy = 0.378<br/>samples = 82<br/>value = [76, 6]>, fillcolor="#e78b49"] ;
147 -> 148 ;
149 [label=<timestamp &le; 21.5<br/>entropy = 0.386<br/>samples = 53<br/>value = [49, 4]>, fillcolor="#e78b49"] ;
148 -> 149 ;
150 [label=<timestamp &le; 19.5<br/>entropy = 0.378<br/>samples = 41<br/>value = [38, 3]>, fillcolor="#e78b49"] ;
149 -> 150 ;
151 [label=<entropy = 0.371<br/>samples = 14<br/>value = [13, 1]>, fillcolor="#e78b48"] ;
150 -> 151 ;
152 [label=<timestamp &le; 20.5<br/>entropy = 0.381<br/>samples = 27<br/>value = [25, 2]>, fillcolor="#e78b49"] ;
150 -> 152 ;
153 [label=<entropy = 0.391<br/>samples = 13<br/>value = [12, 1]>, fillcolor="#e78c49"] ;
152 -> 153 ;
154 [label=<entropy = 0.371<br/>samples = 14<br/>value = [13, 1]>, fillcolor="#e78b48"] ;
152 -> 154 ;
155 [label=<entropy = 0.414<br/>samples = 12<br/>value = [11, 1]>, fillcolor="#e78c4b"] ;
149 -> 155 ;
156 [label=<timestamp &le; 23.5<br/>entropy = 0.362<br/>samples = 29<br/>value = [27, 2]>, fillcolor="#e78a48"] ;
148 -> 156 ;
157 [label=<entropy = 0.353<br/>samples = 15<br/>value = [14, 1]>, fillcolor="#e78a47"] ;
156 -> 157 ;
158 [label=<entropy = 0.371<br/>samples = 14<br/>value = [13, 1]>, fillcolor="#e78b48"] ;
156 -> 158 ;
159 [label=<timestamp &le; 25.5<br/>entropy = 0.424<br/>samples = 58<br/>value = [53, 5]>, fillcolor="#e78d4c"] ;
147 -> 159 ;
160 [label=<entropy = 0.523<br/>samples = 17<br/>value = [15, 2]>, fillcolor="#e89253"] ;
159 -> 160 ;
161 [label=<timestamp &le; 26.5<br/>entropy = 0.378<br/>samples = 41<br/>value = [38, 3]>, fillcolor="#e78b49"] ;
159 -> 161 ;
162 [label=<entropy = 0.353<br/>samples = 15<br/>value = [14, 1]>, fillcolor="#e78a47"] ;
161 -> 162 ;
163 [label=<timestamp &le; 27.5<br/>entropy = 0.391<br/>samples = 26<br/>value = [24, 2]>, fillcolor="#e78c49"] ;
161 -> 163 ;
164 [label=<entropy = 0.391<br/>samples = 13<br/>value = [12, 1]>, fillcolor="#e78c49"] ;
163 -> 164 ;
165 [label=<entropy = 0.391<br/>samples = 13<br/>value = [12, 1]>, fillcolor="#e78c49"] ;
163 -> 165 ;
166 [label=<entropy = 0.0<br/>samples = 14<br/>value = [14, 0]>, fillcolor="#e58139"] ;
146 -> 166 ;
167 [label=<timestamp &le; 35.5<br/>entropy = 0.497<br/>samples = 312<br/>value = [278, 34]>, fillcolor="#e89051"] ;
145 -> 167 ;
168 [label=<timestamp &le; 33.5<br/>entropy = 0.563<br/>samples = 91<br/>value = [79, 12]>, fillcolor="#e99457"] ;
167 -> 168 ;
169 [label=<timestamp &le; 31.5<br/>entropy = 0.573<br/>samples = 59<br/>value = [51, 8]>, fillcolor="#e99558"] ;
168 -> 169 ;
170 [label=<timestamp &le; 30.5<br/>entropy = 0.567<br/>samples = 30<br/>value = [26, 4]>, fillcolor="#e99457"] ;
169 -> 170 ;
171 [label=<entropy = 0.567<br/>samples = 15<br/>value = [13, 2]>, fillcolor="#e99457"] ;
170 -> 171 ;
172 [label=<entropy = 0.567<br/>samples = 15<br/>value = [13, 2]>, fillcolor="#e99457"] ;
170 -> 172 ;
173 [label=<timestamp &le; 32.5<br/>entropy = 0.579<br/>samples = 29<br/>value = [25, 4]>, fillcolor="#e99559"] ;
169 -> 173 ;
174 [label=<entropy = 0.592<br/>samples = 14<br/>value = [12, 2]>, fillcolor="#e9965a"] ;
173 -> 174 ;
175 [label=<entropy = 0.567<br/>samples = 15<br/>value = [13, 2]>, fillcolor="#e99457"] ;
173 -> 175 ;
176 [label=<timestamp &le; 34.5<br/>entropy = 0.544<br/>samples = 32<br/>value = [28, 4]>, fillcolor="#e99355"] ;
168 -> 176 ;
177 [label=<entropy = 0.544<br/>samples = 16<br/>value = [14, 2]>, fillcolor="#e99355"] ;
176 -> 177 ;
178 [label=<entropy = 0.544<br/>samples = 16<br/>value = [14, 2]>, fillcolor="#e99355"] ;
176 -> 178 ;
179 [label=<timestamp &le; 39.5<br/>entropy = 0.468<br/>samples = 221<br/>value = [199, 22]>, fillcolor="#e88f4f"] ;
167 -> 179 ;
180 [label=<timestamp &le; 37.5<br/>entropy = 0.414<br/>samples = 60<br/>value = [55, 5]>, fillcolor="#e78c4b"] ;
179 -> 180 ;
181 [label=<timestamp &le; 36.5<br/>entropy = 0.48<br/>samples = 29<br/>value = [26, 3]>, fillcolor="#e89050"] ;
180 -> 181 ;
182 [label=<entropy = 0.353<br/>samples = 15<br/>value = [14, 1]>, fillcolor="#e78a47"] ;
181 -> 182 ;
183 [label=<entropy = 0.592<br/>samples = 14<br/>value = [12, 2]>, fillcolor="#e9965a"] ;
181 -> 183 ;
184 [label=<timestamp &le; 38.5<br/>entropy = 0.345<br/>samples = 31<br/>value = [29, 2]>, fillcolor="#e78a47"] ;
180 -> 184 ;
185 [label=<entropy = 0.337<br/>samples = 16<br/>value = [15, 1]>, fillcolor="#e78946"] ;
184 -> 185 ;
186 [label=<entropy = 0.353<br/>samples = 15<br/>value = [14, 1]>, fillcolor="#e78a47"] ;
184 -> 186 ;
187 [label=<timestamp &le; 41.5<br/>entropy = 0.486<br/>samples = 161<br/>value = [144, 17]>, fillcolor="#e89050"] ;
179 -> 187 ;
188 [label=<timestamp &le; 40.5<br/>entropy = 0.555<br/>samples = 31<br/>value = [27, 4]>, fillcolor="#e99456"] ;
187 -> 188 ;
189 [label=<entropy = 0.523<br/>samples = 17<br/>value = [15, 2]>, fillcolor="#e89253"] ;
188 -> 189 ;
190 [label=<entropy = 0.592<br/>samples = 14<br/>value = [12, 2]>, fillcolor="#e9965a"] ;
188 -> 190 ;
191 [label=<timestamp &le; 43.5<br/>entropy = 0.469<br/>samples = 130<br/>value = [117, 13]>, fillcolor="#e88f4f"] ;
187 -> 191 ;
192 [label=<timestamp &le; 42.5<br/>entropy = 0.353<br/>samples = 30<br/>value = [28, 2]>, fillcolor="#e78a47"] ;
191 -> 192 ;
193 [label=<entropy = 0.353<br/>samples = 15<br/>value = [14, 1]>, fillcolor="#e78a47"] ;
192 -> 193 ;
194 [label=<entropy = 0.353<br/>samples = 15<br/>value = [14, 1]>, fillcolor="#e78a47"] ;
192 -> 194 ;
195 [label=<timestamp &le; 47.5<br/>entropy = 0.5<br/>samples = 100<br/>value = [89, 11]>, fillcolor="#e89151"] ;
191 -> 195 ;
196 [label=<timestamp &le; 46.5<br/>entropy = 0.528<br/>samples = 67<br/>value = [59, 8]>, fillcolor="#e99254"] ;
195 -> 196 ;
197 [label=<timestamp &le; 44.5<br/>entropy = 0.516<br/>samples = 52<br/>value = [46, 6]>, fillcolor="#e89153"] ;
196 -> 197 ;
198 [label=<entropy = 0.523<br/>samples = 17<br/>value = [15, 2]>, fillcolor="#e89253"] ;
197 -> 198 ;
199 [label=<timestamp &le; 45.5<br/>entropy = 0.513<br/>samples = 35<br/>value = [31, 4]>, fillcolor="#e89153"] ;
197 -> 199 ;
200 [label=<entropy = 0.503<br/>samples = 18<br/>value = [16, 2]>, fillcolor="#e89152"] ;
199 -> 200 ;
201 [label=<entropy = 0.523<br/>samples = 17<br/>value = [15, 2]>, fillcolor="#e89253"] ;
199 -> 201 ;
202 [label=<entropy = 0.567<br/>samples = 15<br/>value = [13, 2]>, fillcolor="#e99457"] ;
196 -> 202 ;
203 [label=<timestamp &le; 48.5<br/>entropy = 0.439<br/>samples = 33<br/>value = [30, 3]>, fillcolor="#e88e4d"] ;
195 -> 203 ;
204 [label=<entropy = 0.337<br/>samples = 16<br/>value = [15, 1]>, fillcolor="#e78946"] ;
203 -> 204 ;
205 [label=<entropy = 0.523<br/>samples = 17<br/>value = [15, 2]>, fillcolor="#e89253"] ;
203 -> 205 ;
206 [label=<timestamp &le; 19.0<br/>entropy = 0.722<br/>samples = 30<br/>value = [24, 6]>, fillcolor="#eca06a"] ;
106 -> 206 ;
207 [label=<entropy = 0.0<br/>samples = 7<br/>value = [7, 0]>, fillcolor="#e58139"] ;
206 -> 207 ;
208 [label=<timestamp &le; 46.5<br/>entropy = 0.828<br/>samples = 23<br/>value = [17, 6]>, fillcolor="#eead7f"] ;
206 -> 208 ;
209 [label=<RPi_No &le; 101.5<br/>entropy = 0.9<br/>samples = 19<br/>value = [13, 6]>, fillcolor="#f1bb94"] ;
208 -> 209 ;
210 [label=<entropy = 0.971<br/>samples = 5<br/>value = [3, 2]>, fillcolor="#f6d5bd"] ;
209 -> 210 ;
211 [label=<timestamp &le; 34.5<br/>entropy = 0.863<br/>samples = 14<br/>value = [10, 4]>, fillcolor="#efb388"] ;
209 -> 211 ;
212 [label=<entropy = 0.811<br/>samples = 8<br/>value = [6, 2]>, fillcolor="#eeab7b"] ;
211 -> 212 ;
213 [label=<entropy = 0.918<br/>samples = 6<br/>value = [4, 2]>, fillcolor="#f2c09c"] ;
211 -> 213 ;
214 [label=<entropy = 0.0<br/>samples = 4<br/>value = [4, 0]>, fillcolor="#e58139"] ;
208 -> 214 ;
215 [label=<entropy = 0.0<br/>samples = 40<br/>value = [40, 0]>, fillcolor="#e58139"] ;
105 -> 215 ;
216 [label=<CosSim &le; 0.134<br/>entropy = 0.587<br/>samples = 319<br/>value = [274, 45]>, fillcolor="#e9965a"] ;
104 -> 216 ;
217 [label=<timestamp &le; 20.0<br/>entropy = 0.781<br/>samples = 108<br/>value = [83, 25]>, fillcolor="#eda775"] ;
216 -> 217 ;
218 [label=<timestamp &le; 1.5<br/>entropy = 0.994<br/>samples = 11<br/>value = [5, 6]>, fillcolor="#deeffb"] ;
217 -> 218 ;
219 [label=<entropy = 0.0<br/>samples = 1<br/>value = [0, 1]>, fillcolor="#399de5"] ;
218 -> 219 ;
220 [label=<timestamp &le; 10.5<br/>entropy = 1.0<br/>samples = 10<br/>value = [5, 5]>, fillcolor="#ffffff"] ;
218 -> 220 ;
221 [label=<entropy = 0.918<br/>samples = 3<br/>value = [2, 1]>, fillcolor="#f2c09c"] ;
220 -> 221 ;
222 [label=<timestamp &le; 18.5<br/>entropy = 0.985<br/>samples = 7<br/>value = [3, 4]>, fillcolor="#cee6f8"] ;
220 -> 222 ;
223 [label=<entropy = 1.0<br/>samples = 4<br/>value = [2, 2]>, fillcolor="#ffffff"] ;
222 -> 223 ;
224 [label=<entropy = 0.918<br/>samples = 3<br/>value = [1, 2]>, fillcolor="#9ccef2"] ;
222 -> 224 ;
225 [label=<CosSim &le; 0.125<br/>entropy = 0.714<br/>samples = 97<br/>value = [78, 19]>, fillcolor="#eba069"] ;
217 -> 225 ;
226 [label=<timestamp &le; 80.5<br/>entropy = 0.662<br/>samples = 93<br/>value = [77, 16]>, fillcolor="#ea9b62"] ;
225 -> 226 ;
227 [label=<timestamp &le; 51.0<br/>entropy = 0.567<br/>samples = 60<br/>value = [52, 8]>, fillcolor="#e99457"] ;
226 -> 227 ;
228 [label=<timestamp &le; 25.5<br/>entropy = 0.702<br/>samples = 42<br/>value = [34, 8]>, fillcolor="#eb9f68"] ;
227 -> 228 ;
229 [label=<entropy = 0.0<br/>samples = 4<br/>value = [4, 0]>, fillcolor="#e58139"] ;
228 -> 229 ;
230 [label=<CosSim &le; 0.12<br/>entropy = 0.742<br/>samples = 38<br/>value = [30, 8]>, fillcolor="#eca36e"] ;
228 -> 230 ;
231 [label=<timestamp &le; 37.0<br/>entropy = 0.65<br/>samples = 24<br/>value = [20, 4]>, fillcolor="#ea9a61"] ;
230 -> 231 ;
232 [label=<entropy = 0.0<br/>samples = 8<br/>value = [8, 0]>, fillcolor="#e58139"] ;
231 -> 232 ;
233 [label=<RPi_No &le; 101.5<br/>entropy = 0.811<br/>samples = 16<br/>value = [12, 4]>, fillcolor="#eeab7b"] ;
231 -> 233 ;
234 [label=<CosSim &le; 0.108<br/>entropy = 0.954<br/>samples = 8<br/>value = [5, 3]>, fillcolor="#f5cdb0"] ;
233 -> 234 ;
235 [label=<CosSim &le; 0.09<br/>entropy = 0.985<br/>samples = 7<br/>value = [4, 3]>, fillcolor="#f8e0ce"] ;
234 -> 235 ;
236 [label=<timestamp &le; 43.5<br/>entropy = 0.811<br/>samples = 4<br/>value = [3, 1]>, fillcolor="#eeab7b"] ;
235 -> 236 ;
237 [label=<entropy = 0.0<br/>samples = 2<br/>value = [2, 0]>, fillcolor="#e58139"] ;
236 -> 237 ;
238 [label=<entropy = 1.0<br/>samples = 2<br/>value = [1, 1]>, fillcolor="#ffffff"] ;
236 -> 238 ;
239 [label=<entropy = 0.918<br/>samples = 3<br/>value = [1, 2]>, fillcolor="#9ccef2"] ;
235 -> 239 ;
240 [label=<entropy = 0.0<br/>samples = 1<br/>value = [1, 0]>, fillcolor="#e58139"] ;
234 -> 240 ;
241 [label=<timestamp &le; 48.0<br/>entropy = 0.544<br/>samples = 8<br/>value = [7, 1]>, fillcolor="#e99355"] ;
233 -> 241 ;
242 [label=<entropy = 0.0<br/>samples = 1<br/>value = [1, 0]>, fillcolor="#e58139"] ;
241 -> 242 ;
243 [label=<entropy = 0.592<br/>samples = 7<br/>value = [6, 1]>, fillcolor="#e9965a"] ;
241 -> 243 ;
244 [label=<CosSim &le; 0.123<br/>entropy = 0.863<br/>samples = 14<br/>value = [10, 4]>, fillcolor="#efb388"] ;
230 -> 244 ;
245 [label=<CosSim &le; 0.122<br/>entropy = 0.89<br/>samples = 13<br/>value = [9, 4]>, fillcolor="#f1b991"] ;
244 -> 245 ;
246 [label=<RPi_No &le; 101.5<br/>entropy = 0.863<br/>samples = 7<br/>value = [5, 2]>, fillcolor="#efb388"] ;
245 -> 246 ;
247 [label=<entropy = 0.811<br/>samples = 4<br/>value = [3, 1]>, fillcolor="#eeab7b"] ;
246 -> 247 ;
248 [label=<entropy = 0.918<br/>samples = 3<br/>value = [2, 1]>, fillcolor="#f2c09c"] ;
246 -> 248 ;
249 [label=<entropy = 0.918<br/>samples = 6<br/>value = [4, 2]>, fillcolor="#f2c09c"] ;
245 -> 249 ;
250 [label=<entropy = 0.0<br/>samples = 1<br/>value = [1, 0]>, fillcolor="#e58139"] ;
244 -> 250 ;
251 [label=<entropy = 0.0<br/>samples = 18<br/>value = [18, 0]>, fillcolor="#e58139"] ;
227 -> 251 ;
252 [label=<timestamp &le; 87.0<br/>entropy = 0.799<br/>samples = 33<br/>value = [25, 8]>, fillcolor="#eda978"] ;
226 -> 252 ;
253 [label=<RPi_No &le; 101.5<br/>entropy = 1.0<br/>samples = 6<br/>value = [3, 3]>, fillcolor="#ffffff"] ;
252 -> 253 ;
254 [label=<entropy = 0.0<br/>samples = 1<br/>value = [1, 0]>, fillcolor="#e58139"] ;
253 -> 254 ;
255 [label=<timestamp &le; 82.5<br/>entropy = 0.971<br/>samples = 5<br/>value = [2, 3]>, fillcolor="#bddef6"] ;
253 -> 255 ;
256 [label=<entropy = 0.918<br/>samples = 3<br/>value = [1, 2]>, fillcolor="#9ccef2"] ;
255 -> 256 ;
257 [label=<entropy = 1.0<br/>samples = 2<br/>value = [1, 1]>, fillcolor="#ffffff"] ;
255 -> 257 ;
258 [label=<CosSim &le; 0.101<br/>entropy = 0.691<br/>samples = 27<br/>value = [22, 5]>, fillcolor="#eb9e66"] ;
252 -> 258 ;
259 [label=<CosSim &le; 0.062<br/>entropy = 0.523<br/>samples = 17<br/>value = [15, 2]>, fillcolor="#e89253"] ;
258 -> 259 ;
260 [label=<CosSim &le; 0.055<br/>entropy = 0.65<br/>samples = 12<br/>value = [10, 2]>, fillcolor="#ea9a61"] ;
259 -> 260 ;
261 [label=<entropy = 0.65<br/>samples = 6<br/>value = [5, 1]>, fillcolor="#ea9a61"] ;
260 -> 261 ;
262 [label=<entropy = 0.65<br/>samples = 6<br/>value = [5, 1]>, fillcolor="#ea9a61"] ;
260 -> 262 ;
263 [label=<entropy = 0.0<br/>samples = 5<br/>value = [5, 0]>, fillcolor="#e58139"] ;
259 -> 263 ;
264 [label=<CosSim &le; 0.107<br/>entropy = 0.881<br/>samples = 10<br/>value = [7, 3]>, fillcolor="#f0b78e"] ;
258 -> 264 ;
265 [label=<entropy = 0.0<br/>samples = 1<br/>value = [0, 1]>, fillcolor="#399de5"] ;
264 -> 265 ;
266 [label=<CosSim &le; 0.111<br/>entropy = 0.764<br/>samples = 9<br/>value = [7, 2]>, fillcolor="#eca572"] ;
264 -> 266 ;
267 [label=<entropy = 0.0<br/>samples = 3<br/>value = [3, 0]>, fillcolor="#e58139"] ;
266 -> 267 ;
268 [label=<CosSim &le; 0.117<br/>entropy = 0.918<br/>samples = 6<br/>value = [4, 2]>, fillcolor="#f2c09c"] ;
266 -> 268 ;
269 [label=<entropy = 0.0<br/>samples = 1<br/>value = [0, 1]>, fillcolor="#399de5"] ;
268 -> 269 ;
270 [label=<CosSim &le; 0.121<br/>entropy = 0.722<br/>samples = 5<br/>value = [4, 1]>, fillcolor="#eca06a"] ;
268 -> 270 ;
271 [label=<entropy = 0.0<br/>samples = 2<br/>value = [2, 0]>, fillcolor="#e58139"] ;
270 -> 271 ;
272 [label=<entropy = 0.918<br/>samples = 3<br/>value = [2, 1]>, fillcolor="#f2c09c"] ;
270 -> 272 ;
273 [label=<CosSim &le; 0.129<br/>entropy = 0.811<br/>samples = 4<br/>value = [1, 3]>, fillcolor="#7bbeee"] ;
225 -> 273 ;
274 [label=<entropy = 0.918<br/>samples = 3<br/>value = [1, 2]>, fillcolor="#9ccef2"] ;
273 -> 274 ;
275 [label=<entropy = 0.0<br/>samples = 1<br/>value = [0, 1]>, fillcolor="#399de5"] ;
273 -> 275 ;
276 [label=<CosSim &le; 0.242<br/>entropy = 0.452<br/>samples = 211<br/>value = [191, 20]>, fillcolor="#e88e4e"] ;
216 -> 276 ;
277 [label=<CosSim &le; 0.215<br/>entropy = 0.244<br/>samples = 99<br/>value = [95, 4]>, fillcolor="#e68641"] ;
276 -> 277 ;
278 [label=<CosSim &le; 0.214<br/>entropy = 0.316<br/>samples = 70<br/>value = [66, 4]>, fillcolor="#e78945"] ;
277 -> 278 ;
279 [label=<timestamp &le; 52.5<br/>entropy = 0.258<br/>samples = 69<br/>value = [66, 3]>, fillcolor="#e68742"] ;
278 -> 279 ;
280 [label=<timestamp &le; 42.0<br/>entropy = 0.414<br/>samples = 36<br/>value = [33, 3]>, fillcolor="#e78c4b"] ;
279 -> 280 ;
281 [label=<timestamp &le; 1.5<br/>entropy = 0.191<br/>samples = 34<br/>value = [33, 1]>, fillcolor="#e6853f"] ;
280 -> 281 ;
282 [label=<entropy = 0.918<br/>samples = 3<br/>value = [2, 1]>, fillcolor="#f2c09c"] ;
281 -> 282 ;
283 [label=<entropy = 0.0<br/>samples = 31<br/>value = [31, 0]>, fillcolor="#e58139"] ;
281 -> 283 ;
284 [label=<entropy = 0.0<br/>samples = 2<br/>value = [0, 2]>, fillcolor="#399de5"] ;
280 -> 284 ;
285 [label=<entropy = 0.0<br/>samples = 33<br/>value = [33, 0]>, fillcolor="#e58139"] ;
279 -> 285 ;
286 [label=<entropy = 0.0<br/>samples = 1<br/>value = [0, 1]>, fillcolor="#399de5"] ;
278 -> 286 ;
287 [label=<entropy = 0.0<br/>samples = 29<br/>value = [29, 0]>, fillcolor="#e58139"] ;
277 -> 287 ;
288 [label=<timestamp &le; 57.5<br/>entropy = 0.592<br/>samples = 112<br/>value = [96, 16]>, fillcolor="#e9965a"] ;
276 -> 288 ;
289 [label=<CosSim &le; 0.242<br/>entropy = 0.362<br/>samples = 58<br/>value = [54, 4]>, fillcolor="#e78a48"] ;
288 -> 289 ;
290 [label=<entropy = 0.0<br/>samples = 1<br/>value = [0, 1]>, fillcolor="#399de5"] ;
289 -> 290 ;
291 [label=<timestamp &le; 45.5<br/>entropy = 0.297<br/>samples = 57<br/>value = [54, 3]>, fillcolor="#e68844"] ;
289 -> 291 ;
292 [label=<CosSim &le; 0.288<br/>entropy = 0.431<br/>samples = 34<br/>value = [31, 3]>, fillcolor="#e88d4c"] ;
291 -> 292 ;
293 [label=<CosSim &le; 0.281<br/>entropy = 0.592<br/>samples = 21<br/>value = [18, 3]>, fillcolor="#e9965a"] ;
292 -> 293 ;
294 [label=<timestamp &le; 41.5<br/>entropy = 0.31<br/>samples = 18<br/>value = [17, 1]>, fillcolor="#e78845"] ;
293 -> 294 ;
295 [label=<entropy = 0.0<br/>samples = 14<br/>value = [14, 0]>, fillcolor="#e58139"] ;
294 -> 295 ;
296 [label=<entropy = 0.811<br/>samples = 4<br/>value = [3, 1]>, fillcolor="#eeab7b"] ;
294 -> 296 ;
297 [label=<timestamp &le; 17.5<br/>entropy = 0.918<br/>samples = 3<br/>value = [1, 2]>, fillcolor="#9ccef2"] ;
293 -> 297 ;
298 [label=<entropy = 1.0<br/>samples = 2<br/>value = [1, 1]>, fillcolor="#ffffff"] ;
297 -> 298 ;
299 [label=<entropy = 0.0<br/>samples = 1<br/>value = [0, 1]>, fillcolor="#399de5"] ;
297 -> 299 ;
300 [label=<entropy = 0.0<br/>samples = 13<br/>value = [13, 0]>, fillcolor="#e58139"] ;
292 -> 300 ;
301 [label=<entropy = 0.0<br/>samples = 23<br/>value = [23, 0]>, fillcolor="#e58139"] ;
291 -> 301 ;
302 [label=<timestamp &le; 84.5<br/>entropy = 0.764<br/>samples = 54<br/>value = [42, 12]>, fillcolor="#eca572"] ;
288 -> 302 ;
303 [label=<timestamp &le; 59.5<br/>entropy = 0.684<br/>samples = 44<br/>value = [36, 8]>, fillcolor="#eb9d65"] ;
302 -> 303 ;
304 [label=<entropy = 1.0<br/>samples = 4<br/>value = [2, 2]>, fillcolor="#ffffff"] ;
303 -> 304 ;
305 [label=<timestamp &le; 64.5<br/>entropy = 0.61<br/>samples = 40<br/>value = [34, 6]>, fillcolor="#ea975c"] ;
303 -> 305 ;
306 [label=<entropy = 0.0<br/>samples = 5<br/>value = [5, 0]>, fillcolor="#e58139"] ;
305 -> 306 ;
307 [label=<CosSim &le; 0.248<br/>entropy = 0.661<br/>samples = 35<br/>value = [29, 6]>, fillcolor="#ea9b62"] ;
305 -> 307 ;
308 [label=<entropy = 0.0<br/>samples = 4<br/>value = [4, 0]>, fillcolor="#e58139"] ;
307 -> 308 ;
309 [label=<timestamp &le; 66.0<br/>entropy = 0.709<br/>samples = 31<br/>value = [25, 6]>, fillcolor="#eb9f69"] ;
307 -> 309 ;
310 [label=<CosSim &le; 0.304<br/>entropy = 1.0<br/>samples = 2<br/>value = [1, 1]>, fillcolor="#ffffff"] ;
309 -> 310 ;
311 [label=<entropy = 0.0<br/>samples = 1<br/>value = [1, 0]>, fillcolor="#e58139"] ;
310 -> 311 ;
312 [label=<entropy = 0.0<br/>samples = 1<br/>value = [0, 1]>, fillcolor="#399de5"] ;
310 -> 312 ;
313 [label=<CosSim &le; 0.267<br/>entropy = 0.663<br/>samples = 29<br/>value = [24, 5]>, fillcolor="#ea9b62"] ;
309 -> 313 ;
314 [label=<CosSim &le; 0.259<br/>entropy = 0.881<br/>samples = 10<br/>value = [7, 3]>, fillcolor="#f0b78e"] ;
313 -> 314 ;
315 [label=<timestamp &le; 71.5<br/>entropy = 0.592<br/>samples = 7<br/>value = [6, 1]>, fillcolor="#e9965a"] ;
314 -> 315 ;
316 [label=<entropy = 0.918<br/>samples = 3<br/>value = [2, 1]>, fillcolor="#f2c09c"] ;
315 -> 316 ;
317 [label=<entropy = 0.0<br/>samples = 4<br/>value = [4, 0]>, fillcolor="#e58139"] ;
315 -> 317 ;
318 [label=<entropy = 0.918<br/>samples = 3<br/>value = [1, 2]>, fillcolor="#9ccef2"] ;
314 -> 318 ;
319 [label=<timestamp &le; 76.5<br/>entropy = 0.485<br/>samples = 19<br/>value = [17, 2]>, fillcolor="#e89050"] ;
313 -> 319 ;
320 [label=<RPi_No &le; 101.5<br/>entropy = 0.592<br/>samples = 14<br/>value = [12, 2]>, fillcolor="#e9965a"] ;
319 -> 320 ;
321 [label=<entropy = 0.0<br/>samples = 3<br/>value = [3, 0]>, fillcolor="#e58139"] ;
320 -> 321 ;
322 [label=<CosSim &le; 0.298<br/>entropy = 0.684<br/>samples = 11<br/>value = [9, 2]>, fillcolor="#eb9d65"] ;
320 -> 322 ;
323 [label=<entropy = 0.811<br/>samples = 4<br/>value = [3, 1]>, fillcolor="#eeab7b"] ;
322 -> 323 ;
324 [label=<entropy = 0.592<br/>samples = 7<br/>value = [6, 1]>, fillcolor="#e9965a"] ;
322 -> 324 ;
325 [label=<entropy = 0.0<br/>samples = 5<br/>value = [5, 0]>, fillcolor="#e58139"] ;
319 -> 325 ;
326 [label=<CosSim &le; 0.273<br/>entropy = 0.971<br/>samples = 10<br/>value = [6, 4]>, fillcolor="#f6d5bd"] ;
302 -> 326 ;
327 [label=<CosSim &le; 0.252<br/>entropy = 0.65<br/>samples = 6<br/>value = [5, 1]>, fillcolor="#ea9a61"] ;
326 -> 327 ;
328 [label=<entropy = 1.0<br/>samples = 2<br/>value = [1, 1]>, fillcolor="#ffffff"] ;
327 -> 328 ;
329 [label=<entropy = 0.0<br/>samples = 4<br/>value = [4, 0]>, fillcolor="#e58139"] ;
327 -> 329 ;
330 [label=<RPi_No &le; 101.5<br/>entropy = 0.811<br/>samples = 4<br/>value = [1, 3]>, fillcolor="#7bbeee"] ;
326 -> 330 ;
331 [label=<entropy = 0.0<br/>samples = 1<br/>value = [0, 1]>, fillcolor="#399de5"] ;
330 -> 331 ;
332 [label=<entropy = 0.918<br/>samples = 3<br/>value = [1, 2]>, fillcolor="#9ccef2"] ;
330 -> 332 ;
333 [label=<entropy = 0.0<br/>samples = 19<br/>value = [19, 0]>, fillcolor="#e58139"] ;
103 -> 333 ;
334 [label=<CosSim &le; 0.0<br/>entropy = 0.622<br/>samples = 2193<br/>value = [1853, 340]>, fillcolor="#ea985d"] ;
2 -> 334 ;
335 [label=<timestamp &le; 232.5<br/>entropy = 0.681<br/>samples = 1474<br/>value = [1208, 266]>, fillcolor="#eb9d65"] ;
334 -> 335 ;
336 [label=<timestamp &le; 186.5<br/>entropy = 0.707<br/>samples = 1282<br/>value = [1035, 247]>, fillcolor="#eb9f68"] ;
335 -> 336 ;
337 [label=<timestamp &le; 173.5<br/>entropy = 0.675<br/>samples = 506<br/>value = [416, 90]>, fillcolor="#eb9c64"] ;
336 -> 337 ;
338 [label=<timestamp &le; 159.5<br/>entropy = 0.709<br/>samples = 315<br/>value = [254, 61]>, fillcolor="#eb9f69"] ;
337 -> 338 ;
339 [label=<timestamp &le; 150.5<br/>entropy = 0.686<br/>samples = 208<br/>value = [170, 38]>, fillcolor="#eb9d65"] ;
338 -> 339 ;
340 [label=<timestamp &le; 141.5<br/>entropy = 0.736<br/>samples = 135<br/>value = [107, 28]>, fillcolor="#eca26d"] ;
339 -> 340 ;
341 [label=<timestamp &le; 139.5<br/>entropy = 0.681<br/>samples = 61<br/>value = [50, 11]>, fillcolor="#eb9d65"] ;
340 -> 341 ;
342 [label=<timestamp &le; 135.5<br/>entropy = 0.722<br/>samples = 45<br/>value = [36, 9]>, fillcolor="#eca06a"] ;
341 -> 342 ;
343 [label=<entropy = 0.592<br/>samples = 7<br/>value = [6, 1]>, fillcolor="#e9965a"] ;
342 -> 343 ;
344 [label=<timestamp &le; 137.5<br/>entropy = 0.742<br/>samples = 38<br/>value = [30, 8]>, fillcolor="#eca36e"] ;
342 -> 344 ;
345 [label=<timestamp &le; 136.5<br/>entropy = 0.722<br/>samples = 20<br/>value = [16, 4]>, fillcolor="#eca06a"] ;
344 -> 345 ;
346 [label=<entropy = 0.722<br/>samples = 10<br/>value = [8, 2]>, fillcolor="#eca06a"] ;
345 -> 346 ;
347 [label=<entropy = 0.722<br/>samples = 10<br/>value = [8, 2]>, fillcolor="#eca06a"] ;
345 -> 347 ;
348 [label=<timestamp &le; 138.5<br/>entropy = 0.764<br/>samples = 18<br/>value = [14, 4]>, fillcolor="#eca572"] ;
344 -> 348 ;
349 [label=<entropy = 0.811<br/>samples = 8<br/>value = [6, 2]>, fillcolor="#eeab7b"] ;
348 -> 349 ;
350 [label=<entropy = 0.722<br/>samples = 10<br/>value = [8, 2]>, fillcolor="#eca06a"] ;
348 -> 350 ;
351 [label=<timestamp &le; 140.5<br/>entropy = 0.544<br/>samples = 16<br/>value = [14, 2]>, fillcolor="#e99355"] ;
341 -> 351 ;
352 [label=<entropy = 0.544<br/>samples = 8<br/>value = [7, 1]>, fillcolor="#e99355"] ;
351 -> 352 ;
353 [label=<entropy = 0.544<br/>samples = 8<br/>value = [7, 1]>, fillcolor="#e99355"] ;
351 -> 353 ;
354 [label=<timestamp &le; 142.5<br/>entropy = 0.778<br/>samples = 74<br/>value = [57, 17]>, fillcolor="#eda774"] ;
340 -> 354 ;
355 [label=<entropy = 0.918<br/>samples = 6<br/>value = [4, 2]>, fillcolor="#f2c09c"] ;
354 -> 355 ;
356 [label=<timestamp &le; 147.5<br/>entropy = 0.761<br/>samples = 68<br/>value = [53, 15]>, fillcolor="#eca571"] ;
354 -> 356 ;
357 [label=<timestamp &le; 146.5<br/>entropy = 0.722<br/>samples = 45<br/>value = [36, 9]>, fillcolor="#eca06a"] ;
356 -> 357 ;
358 [label=<timestamp &le; 144.5<br/>entropy = 0.753<br/>samples = 37<br/>value = [29, 8]>, fillcolor="#eca470"] ;
357 -> 358 ;
359 [label=<timestamp &le; 143.5<br/>entropy = 0.722<br/>samples = 20<br/>value = [16, 4]>, fillcolor="#eca06a"] ;
358 -> 359 ;
360 [label=<entropy = 0.722<br/>samples = 10<br/>value = [8, 2]>, fillcolor="#eca06a"] ;
359 -> 360 ;
361 [label=<entropy = 0.722<br/>samples = 10<br/>value = [8, 2]>, fillcolor="#eca06a"] ;
359 -> 361 ;
362 [label=<timestamp &le; 145.5<br/>entropy = 0.787<br/>samples = 17<br/>value = [13, 4]>, fillcolor="#eda876"] ;
358 -> 362 ;
363 [label=<entropy = 0.811<br/>samples = 8<br/>value = [6, 2]>, fillcolor="#eeab7b"] ;
362 -> 363 ;
364 [label=<entropy = 0.764<br/>samples = 9<br/>value = [7, 2]>, fillcolor="#eca572"] ;
362 -> 364 ;
365 [label=<entropy = 0.544<br/>samples = 8<br/>value = [7, 1]>, fillcolor="#e99355"] ;
357 -> 365 ;
366 [label=<timestamp &le; 148.5<br/>entropy = 0.828<br/>samples = 23<br/>value = [17, 6]>, fillcolor="#eead7f"] ;
356 -> 366 ;
367 [label=<entropy = 0.811<br/>samples = 8<br/>value = [6, 2]>, fillcolor="#eeab7b"] ;
366 -> 367 ;
368 [label=<timestamp &le; 149.5<br/>entropy = 0.837<br/>samples = 15<br/>value = [11, 4]>, fillcolor="#eeaf81"] ;
366 -> 368 ;
369 [label=<entropy = 0.863<br/>samples = 7<br/>value = [5, 2]>, fillcolor="#efb388"] ;
368 -> 369 ;
370 [label=<entropy = 0.811<br/>samples = 8<br/>value = [6, 2]>, fillcolor="#eeab7b"] ;
368 -> 370 ;
371 [label=<timestamp &le; 156.5<br/>entropy = 0.576<br/>samples = 73<br/>value = [63, 10]>, fillcolor="#e99558"] ;
339 -> 371 ;
372 [label=<timestamp &le; 155.5<br/>entropy = 0.599<br/>samples = 48<br/>value = [41, 7]>, fillcolor="#e9975b"] ;
371 -> 372 ;
373 [label=<timestamp &le; 152.5<br/>entropy = 0.552<br/>samples = 39<br/>value = [34, 5]>, fillcolor="#e99456"] ;
372 -> 373 ;
374 [label=<timestamp &le; 151.5<br/>entropy = 0.592<br/>samples = 14<br/>value = [12, 2]>, fillcolor="#e9965a"] ;
373 -> 374 ;
375 [label=<entropy = 0.544<br/>samples = 8<br/>value = [7, 1]>, fillcolor="#e99355"] ;
374 -> 375 ;
376 [label=<entropy = 0.65<br/>samples = 6<br/>value = [5, 1]>, fillcolor="#ea9a61"] ;
374 -> 376 ;
377 [label=<timestamp &le; 153.5<br/>entropy = 0.529<br/>samples = 25<br/>value = [22, 3]>, fillcolor="#e99254"] ;
373 -> 377 ;
378 [label=<entropy = 0.544<br/>samples = 8<br/>value = [7, 1]>, fillcolor="#e99355"] ;
377 -> 378 ;
379 [label=<timestamp &le; 154.5<br/>entropy = 0.523<br/>samples = 17<br/>value = [15, 2]>, fillcolor="#e89253"] ;
377 -> 379 ;
380 [label=<entropy = 0.503<br/>samples = 9<br/>value = [8, 1]>, fillcolor="#e89152"] ;
379 -> 380 ;
381 [label=<entropy = 0.544<br/>samples = 8<br/>value = [7, 1]>, fillcolor="#e99355"] ;
379 -> 381 ;
382 [label=<entropy = 0.764<br/>samples = 9<br/>value = [7, 2]>, fillcolor="#eca572"] ;
372 -> 382 ;
383 [label=<timestamp &le; 157.5<br/>entropy = 0.529<br/>samples = 25<br/>value = [22, 3]>, fillcolor="#e99254"] ;
371 -> 383 ;
384 [label=<entropy = 0.544<br/>samples = 8<br/>value = [7, 1]>, fillcolor="#e99355"] ;
383 -> 384 ;
385 [label=<timestamp &le; 158.5<br/>entropy = 0.523<br/>samples = 17<br/>value = [15, 2]>, fillcolor="#e89253"] ;
383 -> 385 ;
386 [label=<entropy = 0.503<br/>samples = 9<br/>value = [8, 1]>, fillcolor="#e89152"] ;
385 -> 386 ;
387 [label=<entropy = 0.544<br/>samples = 8<br/>value = [7, 1]>, fillcolor="#e99355"] ;
385 -> 387 ;
388 [label=<timestamp &le; 168.5<br/>entropy = 0.751<br/>samples = 107<br/>value = [84, 23]>, fillcolor="#eca46f"] ;
338 -> 388 ;
389 [label=<timestamp &le; 160.5<br/>entropy = 0.793<br/>samples = 67<br/>value = [51, 16]>, fillcolor="#eda977"] ;
388 -> 389 ;
390 [label=<entropy = 0.722<br/>samples = 5<br/>value = [4, 1]>, fillcolor="#eca06a"] ;
389 -> 390 ;
391 [label=<timestamp &le; 161.5<br/>entropy = 0.798<br/>samples = 62<br/>value = [47, 15]>, fillcolor="#eda978"] ;
389 -> 391 ;
392 [label=<entropy = 0.863<br/>samples = 7<br/>value = [5, 2]>, fillcolor="#efb388"] ;
391 -> 392 ;
393 [label=<timestamp &le; 162.5<br/>entropy = 0.789<br/>samples = 55<br/>value = [42, 13]>, fillcolor="#eda876"] ;
391 -> 393 ;
394 [label=<entropy = 0.722<br/>samples = 10<br/>value = [8, 2]>, fillcolor="#eca06a"] ;
393 -> 394 ;
395 [label=<timestamp &le; 166.5<br/>entropy = 0.802<br/>samples = 45<br/>value = [34, 11]>, fillcolor="#edaa79"] ;
393 -> 395 ;
396 [label=<timestamp &le; 165.5<br/>entropy = 0.826<br/>samples = 27<br/>value = [20, 7]>, fillcolor="#eead7e"] ;
395 -> 396 ;
397 [label=<timestamp &le; 164.5<br/>entropy = 0.792<br/>samples = 21<br/>value = [16, 5]>, fillcolor="#eda877"] ;
396 -> 397 ;
398 [label=<timestamp &le; 163.5<br/>entropy = 0.837<br/>samples = 15<br/>value = [11, 4]>, fillcolor="#eeaf81"] ;
397 -> 398 ;
399 [label=<entropy = 0.811<br/>samples = 8<br/>value = [6, 2]>, fillcolor="#eeab7b"] ;
398 -> 399 ;
400 [label=<entropy = 0.863<br/>samples = 7<br/>value = [5, 2]>, fillcolor="#efb388"] ;
398 -> 400 ;
401 [label=<entropy = 0.65<br/>samples = 6<br/>value = [5, 1]>, fillcolor="#ea9a61"] ;
397 -> 401 ;
402 [label=<entropy = 0.918<br/>samples = 6<br/>value = [4, 2]>, fillcolor="#f2c09c"] ;
396 -> 402 ;
403 [label=<timestamp &le; 167.5<br/>entropy = 0.764<br/>samples = 18<br/>value = [14, 4]>, fillcolor="#eca572"] ;
395 -> 403 ;
404 [label=<entropy = 0.722<br/>samples = 10<br/>value = [8, 2]>, fillcolor="#eca06a"] ;
403 -> 404 ;
405 [label=<entropy = 0.811<br/>samples = 8<br/>value = [6, 2]>, fillcolor="#eeab7b"] ;
403 -> 405 ;
406 [label=<timestamp &le; 170.5<br/>entropy = 0.669<br/>samples = 40<br/>value = [33, 7]>, fillcolor="#eb9c63"] ;
388 -> 406 ;
407 [label=<timestamp &le; 169.5<br/>entropy = 0.523<br/>samples = 17<br/>value = [15, 2]>, fillcolor="#e89253"] ;
406 -> 407 ;
408 [label=<entropy = 0.503<br/>samples = 9<br/>value = [8, 1]>, fillcolor="#e89152"] ;
407 -> 408 ;
409 [label=<entropy = 0.544<br/>samples = 8<br/>value = [7, 1]>, fillcolor="#e99355"] ;
407 -> 409 ;
410 [label=<timestamp &le; 171.5<br/>entropy = 0.755<br/>samples = 23<br/>value = [18, 5]>, fillcolor="#eca470"] ;
406 -> 410 ;
411 [label=<entropy = 0.863<br/>samples = 7<br/>value = [5, 2]>, fillcolor="#efb388"] ;
410 -> 411 ;
412 [label=<timestamp &le; 172.5<br/>entropy = 0.696<br/>samples = 16<br/>value = [13, 3]>, fillcolor="#eb9e67"] ;
410 -> 412 ;
413 [label=<entropy = 0.592<br/>samples = 7<br/>value = [6, 1]>, fillcolor="#e9965a"] ;
412 -> 413 ;
414 [label=<entropy = 0.764<br/>samples = 9<br/>value = [7, 2]>, fillcolor="#eca572"] ;
412 -> 414 ;
415 [label=<RPi_No &le; 101.5<br/>entropy = 0.614<br/>samples = 191<br/>value = [162, 29]>, fillcolor="#ea985c"] ;
337 -> 415 ;
416 [label=<timestamp &le; 180.5<br/>entropy = 0.513<br/>samples = 105<br/>value = [93, 12]>, fillcolor="#e89153"] ;
415 -> 416 ;
417 [label=<timestamp &le; 177.5<br/>entropy = 0.391<br/>samples = 52<br/>value = [48, 4]>, fillcolor="#e78c49"] ;
416 -> 417 ;
418 [label=<timestamp &le; 176.5<br/>entropy = 0.544<br/>samples = 32<br/>value = [28, 4]>, fillcolor="#e99355"] ;
417 -> 418 ;
419 [label=<timestamp &le; 174.5<br/>entropy = 0.426<br/>samples = 23<br/>value = [21, 2]>, fillcolor="#e78d4c"] ;
418 -> 419 ;
420 [label=<entropy = 0.544<br/>samples = 8<br/>value = [7, 1]>, fillcolor="#e99355"] ;
419 -> 420 ;
421 [label=<timestamp &le; 175.5<br/>entropy = 0.353<br/>samples = 15<br/>value = [14, 1]>, fillcolor="#e78a47"] ;
419 -> 421 ;
422 [label=<entropy = 0.0<br/>samples = 7<br/>value = [7, 0]>, fillcolor="#e58139"] ;
421 -> 422 ;
423 [label=<entropy = 0.544<br/>samples = 8<br/>value = [7, 1]>, fillcolor="#e99355"] ;
421 -> 423 ;
424 [label=<entropy = 0.764<br/>samples = 9<br/>value = [7, 2]>, fillcolor="#eca572"] ;
418 -> 424 ;
425 [label=<entropy = 0.0<br/>samples = 20<br/>value = [20, 0]>, fillcolor="#e58139"] ;
417 -> 425 ;
426 [label=<timestamp &le; 184.5<br/>entropy = 0.612<br/>samples = 53<br/>value = [45, 8]>, fillcolor="#ea975c"] ;
416 -> 426 ;
427 [label=<timestamp &le; 183.5<br/>entropy = 0.65<br/>samples = 36<br/>value = [30, 6]>, fillcolor="#ea9a61"] ;
426 -> 427 ;
428 [label=<timestamp &le; 182.5<br/>entropy = 0.619<br/>samples = 26<br/>value = [22, 4]>, fillcolor="#ea985d"] ;
427 -> 428 ;
429 [label=<timestamp &le; 181.5<br/>entropy = 0.672<br/>samples = 17<br/>value = [14, 3]>, fillcolor="#eb9c63"] ;
428 -> 429 ;
430 [label=<entropy = 0.592<br/>samples = 7<br/>value = [6, 1]>, fillcolor="#e9965a"] ;
429 -> 430 ;
431 [label=<entropy = 0.722<br/>samples = 10<br/>value = [8, 2]>, fillcolor="#eca06a"] ;
429 -> 431 ;
432 [label=<entropy = 0.503<br/>samples = 9<br/>value = [8, 1]>, fillcolor="#e89152"] ;
428 -> 432 ;
433 [label=<entropy = 0.722<br/>samples = 10<br/>value = [8, 2]>, fillcolor="#eca06a"] ;
427 -> 433 ;
434 [label=<timestamp &le; 185.5<br/>entropy = 0.523<br/>samples = 17<br/>value = [15, 2]>, fillcolor="#e89253"] ;
426 -> 434 ;
435 [label=<entropy = 0.544<br/>samples = 8<br/>value = [7, 1]>, fillcolor="#e99355"] ;
434 -> 435 ;
436 [label=<entropy = 0.503<br/>samples = 9<br/>value = [8, 1]>, fillcolor="#e89152"] ;
434 -> 436 ;
437 [label=<timestamp &le; 175.5<br/>entropy = 0.717<br/>samples = 86<br/>value = [69, 17]>, fillcolor="#eba06a"] ;
415 -> 437 ;
438 [label=<entropy = 0.0<br/>samples = 2<br/>value = [2, 0]>, fillcolor="#e58139"] ;
437 -> 438 ;
439 [label=<timestamp &le; 176.5<br/>entropy = 0.727<br/>samples = 84<br/>value = [67, 17]>, fillcolor="#eca16b"] ;
437 -> 439 ;
440 [label=<entropy = 0.918<br/>samples = 6<br/>value = [4, 2]>, fillcolor="#f2c09c"] ;
439 -> 440 ;
441 [label=<timestamp &le; 185.5<br/>entropy = 0.706<br/>samples = 78<br/>value = [63, 15]>, fillcolor="#eb9f68"] ;
439 -> 441 ;
442 [label=<timestamp &le; 181.5<br/>entropy = 0.687<br/>samples = 71<br/>value = [58, 13]>, fillcolor="#eb9d65"] ;
441 -> 442 ;
443 [label=<timestamp &le; 179.5<br/>entropy = 0.65<br/>samples = 42<br/>value = [35, 7]>, fillcolor="#ea9a61"] ;
442 -> 443 ;
444 [label=<timestamp &le; 177.5<br/>entropy = 0.706<br/>samples = 26<br/>value = [21, 5]>, fillcolor="#eb9f68"] ;
443 -> 444 ;
445 [label=<entropy = 0.764<br/>samples = 9<br/>value = [7, 2]>, fillcolor="#eca572"] ;
444 -> 445 ;
446 [label=<timestamp &le; 178.5<br/>entropy = 0.672<br/>samples = 17<br/>value = [14, 3]>, fillcolor="#eb9c63"] ;
444 -> 446 ;
447 [label=<entropy = 0.592<br/>samples = 7<br/>value = [6, 1]>, fillcolor="#e9965a"] ;
446 -> 447 ;
448 [label=<entropy = 0.722<br/>samples = 10<br/>value = [8, 2]>, fillcolor="#eca06a"] ;
446 -> 448 ;
449 [label=<timestamp &le; 180.5<br/>entropy = 0.544<br/>samples = 16<br/>value = [14, 2]>, fillcolor="#e99355"] ;
443 -> 449 ;
450 [label=<entropy = 0.544<br/>samples = 8<br/>value = [7, 1]>, fillcolor="#e99355"] ;
449 -> 450 ;
451 [label=<entropy = 0.544<br/>samples = 8<br/>value = [7, 1]>, fillcolor="#e99355"] ;
449 -> 451 ;
452 [label=<timestamp &le; 184.5<br/>entropy = 0.736<br/>samples = 29<br/>value = [23, 6]>, fillcolor="#eca26d"] ;
442 -> 452 ;
453 [label=<timestamp &le; 182.5<br/>entropy = 0.773<br/>samples = 22<br/>value = [17, 5]>, fillcolor="#eda673"] ;
452 -> 453 ;
454 [label=<entropy = 0.722<br/>samples = 5<br/>value = [4, 1]>, fillcolor="#eca06a"] ;
453 -> 454 ;
455 [label=<timestamp &le; 183.5<br/>entropy = 0.787<br/>samples = 17<br/>value = [13, 4]>, fillcolor="#eda876"] ;
453 -> 455 ;
456 [label=<entropy = 0.811<br/>samples = 8<br/>value = [6, 2]>, fillcolor="#eeab7b"] ;
455 -> 456 ;
457 [label=<entropy = 0.764<br/>samples = 9<br/>value = [7, 2]>, fillcolor="#eca572"] ;
455 -> 457 ;
458 [label=<entropy = 0.592<br/>samples = 7<br/>value = [6, 1]>, fillcolor="#e9965a"] ;
452 -> 458 ;
459 [label=<entropy = 0.863<br/>samples = 7<br/>value = [5, 2]>, fillcolor="#efb388"] ;
441 -> 459 ;
460 [label=<timestamp &le; 230.5<br/>entropy = 0.727<br/>samples = 776<br/>value = [619, 157]>, fillcolor="#eca16b"] ;
336 -> 460 ;
461 [label=<timestamp &le; 194.5<br/>entropy = 0.733<br/>samples = 700<br/>value = [556, 144]>, fillcolor="#eca26c"] ;
460 -> 461 ;
462 [label=<timestamp &le; 190.5<br/>entropy = 0.769<br/>samples = 129<br/>value = [100, 29]>, fillcolor="#eda672"] ;
461 -> 462 ;
463 [label=<timestamp &le; 188.5<br/>entropy = 0.746<br/>samples = 66<br/>value = [52, 14]>, fillcolor="#eca36e"] ;
462 -> 463 ;
464 [label=<RPi_No &le; 101.5<br/>entropy = 0.787<br/>samples = 34<br/>value = [26, 8]>, fillcolor="#eda876"] ;
463 -> 464 ;
465 [label=<timestamp &le; 187.5<br/>entropy = 0.811<br/>samples = 16<br/>value = [12, 4]>, fillcolor="#eeab7b"] ;
464 -> 465 ;
466 [label=<entropy = 0.863<br/>samples = 7<br/>value = [5, 2]>, fillcolor="#efb388"] ;
465 -> 466 ;
467 [label=<entropy = 0.764<br/>samples = 9<br/>value = [7, 2]>, fillcolor="#eca572"] ;
465 -> 467 ;
468 [label=<timestamp &le; 187.5<br/>entropy = 0.764<br/>samples = 18<br/>value = [14, 4]>, fillcolor="#eca572"] ;
464 -> 468 ;
469 [label=<entropy = 0.722<br/>samples = 10<br/>value = [8, 2]>, fillcolor="#eca06a"] ;
468 -> 469 ;
470 [label=<entropy = 0.811<br/>samples = 8<br/>value = [6, 2]>, fillcolor="#eeab7b"] ;
468 -> 470 ;
471 [label=<timestamp &le; 189.5<br/>entropy = 0.696<br/>samples = 32<br/>value = [26, 6]>, fillcolor="#eb9e67"] ;
463 -> 471 ;
472 [label=<RPi_No &le; 101.5<br/>entropy = 0.722<br/>samples = 15<br/>value = [12, 3]>, fillcolor="#eca06a"] ;
471 -> 472 ;
473 [label=<entropy = 0.811<br/>samples = 8<br/>value = [6, 2]>, fillcolor="#eeab7b"] ;
472 -> 473 ;
474 [label=<entropy = 0.592<br/>samples = 7<br/>value = [6, 1]>, fillcolor="#e9965a"] ;
472 -> 474 ;
475 [label=<RPi_No &le; 101.5<br/>entropy = 0.672<br/>samples = 17<br/>value = [14, 3]>, fillcolor="#eb9c63"] ;
471 -> 475 ;
476 [label=<entropy = 0.544<br/>samples = 8<br/>value = [7, 1]>, fillcolor="#e99355"] ;
475 -> 476 ;
477 [label=<entropy = 0.764<br/>samples = 9<br/>value = [7, 2]>, fillcolor="#eca572"] ;
475 -> 477 ;
478 [label=<timestamp &le; 191.5<br/>entropy = 0.792<br/>samples = 63<br/>value = [48, 15]>, fillcolor="#eda877"] ;
462 -> 478 ;
479 [label=<RPi_No &le; 101.5<br/>entropy = 0.863<br/>samples = 14<br/>value = [10, 4]>, fillcolor="#efb388"] ;
478 -> 479 ;
480 [label=<entropy = 0.764<br/>samples = 9<br/>value = [7, 2]>, fillcolor="#eca572"] ;
479 -> 480 ;
481 [label=<entropy = 0.971<br/>samples = 5<br/>value = [3, 2]>, fillcolor="#f6d5bd"] ;
479 -> 481 ;
482 [label=<timestamp &le; 192.5<br/>entropy = 0.768<br/>samples = 49<br/>value = [38, 11]>, fillcolor="#eda572"] ;
478 -> 482 ;
483 [label=<RPi_No &le; 101.5<br/>entropy = 0.696<br/>samples = 16<br/>value = [13, 3]>, fillcolor="#eb9e67"] ;
482 -> 483 ;
484 [label=<entropy = 0.65<br/>samples = 6<br/>value = [5, 1]>, fillcolor="#ea9a61"] ;
483 -> 484 ;
485 [label=<entropy = 0.722<br/>samples = 10<br/>value = [8, 2]>, fillcolor="#eca06a"] ;
483 -> 485 ;
486 [label=<timestamp &le; 193.5<br/>entropy = 0.799<br/>samples = 33<br/>value = [25, 8]>, fillcolor="#eda978"] ;
482 -> 486 ;
487 [label=<RPi_No &le; 101.5<br/>entropy = 0.787<br/>samples = 17<br/>value = [13, 4]>, fillcolor="#eda876"] ;
486 -> 487 ;
488 [label=<entropy = 0.811<br/>samples = 8<br/>value = [6, 2]>, fillcolor="#eeab7b"] ;
487 -> 488 ;
489 [label=<entropy = 0.764<br/>samples = 9<br/>value = [7, 2]>, fillcolor="#eca572"] ;
487 -> 489 ;
490 [label=<RPi_No &le; 101.5<br/>entropy = 0.811<br/>samples = 16<br/>value = [12, 4]>, fillcolor="#eeab7b"] ;
486 -> 490 ;
491 [label=<entropy = 0.764<br/>samples = 9<br/>value = [7, 2]>, fillcolor="#eca572"] ;
490 -> 491 ;
492 [label=<entropy = 0.863<br/>samples = 7<br/>value = [5, 2]>, fillcolor="#efb388"] ;
490 -> 492 ;
493 [label=<timestamp &le; 220.5<br/>entropy = 0.725<br/>samples = 571<br/>value = [456, 115]>, fillcolor="#eca16b"] ;
461 -> 493 ;
494 [label=<timestamp &le; 215.5<br/>entropy = 0.713<br/>samples = 404<br/>value = [325, 79]>, fillcolor="#eba069"] ;
493 -> 494 ;
495 [label=<timestamp &le; 206.5<br/>entropy = 0.724<br/>samples = 323<br/>value = [258, 65]>, fillcolor="#eca16b"] ;
494 -> 495 ;
496 [label=<timestamp &le; 204.5<br/>entropy = 0.702<br/>samples = 184<br/>value = [149, 35]>, fillcolor="#eb9f68"] ;
495 -> 496 ;
497 [label=<RPi_No &le; 101.5<br/>entropy = 0.727<br/>samples = 153<br/>value = [122, 31]>, fillcolor="#eca16b"] ;
496 -> 497 ;
498 [label=<timestamp &le; 195.5<br/>entropy = 0.678<br/>samples = 67<br/>value = [55, 12]>, fillcolor="#eb9c64"] ;
497 -> 498 ;
499 [label=<entropy = 0.503<br/>samples = 9<br/>value = [8, 1]>, fillcolor="#e89152"] ;
498 -> 499 ;
500 [label=<timestamp &le; 200.5<br/>entropy = 0.701<br/>samples = 58<br/>value = [47, 11]>, fillcolor="#eb9e67"] ;
498 -> 500 ;
501 [label=<timestamp &le; 199.5<br/>entropy = 0.669<br/>samples = 40<br/>value = [33, 7]>, fillcolor="#eb9c63"] ;
500 -> 501 ;
502 [label=<timestamp &le; 196.5<br/>entropy = 0.696<br/>samples = 32<br/>value = [26, 6]>, fillcolor="#eb9e67"] ;
501 -> 502 ;
503 [label=<entropy = 0.764<br/>samples = 9<br/>value = [7, 2]>, fillcolor="#eca572"] ;
502 -> 503 ;
504 [label=<timestamp &le; 198.5<br/>entropy = 0.667<br/>samples = 23<br/>value = [19, 4]>, fillcolor="#ea9c63"] ;
502 -> 504 ;
505 [label=<timestamp &le; 197.5<br/>entropy = 0.592<br/>samples = 14<br/>value = [12, 2]>, fillcolor="#e9965a"] ;
504 -> 505 ;
506 [label=<entropy = 0.592<br/>samples = 7<br/>value = [6, 1]>, fillcolor="#e9965a"] ;
505 -> 506 ;
507 [label=<entropy = 0.592<br/>samples = 7<br/>value = [6, 1]>, fillcolor="#e9965a"] ;
505 -> 507 ;
508 [label=<entropy = 0.764<br/>samples = 9<br/>value = [7, 2]>, fillcolor="#eca572"] ;
504 -> 508 ;
509 [label=<entropy = 0.544<br/>samples = 8<br/>value = [7, 1]>, fillcolor="#e99355"] ;
501 -> 509 ;
510 [label=<timestamp &le; 201.5<br/>entropy = 0.764<br/>samples = 18<br/>value = [14, 4]>, fillcolor="#eca572"] ;
500 -> 510 ;
511 [label=<entropy = 0.764<br/>samples = 9<br/>value = [7, 2]>, fillcolor="#eca572"] ;
510 -> 511 ;
512 [label=<entropy = 0.764<br/>samples = 9<br/>value = [7, 2]>, fillcolor="#eca572"] ;
510 -> 512 ;
513 [label=<timestamp &le; 202.5<br/>entropy = 0.762<br/>samples = 86<br/>value = [67, 19]>, fillcolor="#eca571"] ;
497 -> 513 ;
514 [label=<timestamp &le; 198.5<br/>entropy = 0.744<br/>samples = 71<br/>value = [56, 15]>, fillcolor="#eca36e"] ;
513 -> 514 ;
515 [label=<timestamp &le; 196.5<br/>entropy = 0.787<br/>samples = 34<br/>value = [26, 8]>, fillcolor="#eda876"] ;
514 -> 515 ;
516 [label=<timestamp &le; 195.5<br/>entropy = 0.811<br/>samples = 16<br/>value = [12, 4]>, fillcolor="#eeab7b"] ;
515 -> 516 ;
517 [label=<entropy = 0.764<br/>samples = 9<br/>value = [7, 2]>, fillcolor="#eca572"] ;
516 -> 517 ;
518 [label=<entropy = 0.863<br/>samples = 7<br/>value = [5, 2]>, fillcolor="#efb388"] ;
516 -> 518 ;
519 [label=<timestamp &le; 197.5<br/>entropy = 0.764<br/>samples = 18<br/>value = [14, 4]>, fillcolor="#eca572"] ;
515 -> 519 ;
520 [label=<entropy = 0.764<br/>samples = 9<br/>value = [7, 2]>, fillcolor="#eca572"] ;
519 -> 520 ;
521 [label=<entropy = 0.764<br/>samples = 9<br/>value = [7, 2]>, fillcolor="#eca572"] ;
519 -> 521 ;
522 [label=<timestamp &le; 200.5<br/>entropy = 0.7<br/>samples = 37<br/>value = [30, 7]>, fillcolor="#eb9e67"] ;
514 -> 522 ;
523 [label=<timestamp &le; 199.5<br/>entropy = 0.722<br/>samples = 20<br/>value = [16, 4]>, fillcolor="#eca06a"] ;
522 -> 523 ;
524 [label=<entropy = 0.722<br/>samples = 10<br/>value = [8, 2]>, fillcolor="#eca06a"] ;
523 -> 524 ;
525 [label=<entropy = 0.722<br/>samples = 10<br/>value = [8, 2]>, fillcolor="#eca06a"] ;
523 -> 525 ;
526 [label=<timestamp &le; 201.5<br/>entropy = 0.672<br/>samples = 17<br/>value = [14, 3]>, fillcolor="#eb9c63"] ;
522 -> 526 ;
527 [label=<entropy = 0.592<br/>samples = 7<br/>value = [6, 1]>, fillcolor="#e9965a"] ;
526 -> 527 ;
528 [label=<entropy = 0.722<br/>samples = 10<br/>value = [8, 2]>, fillcolor="#eca06a"] ;
526 -> 528 ;
529 [label=<timestamp &le; 203.5<br/>entropy = 0.837<br/>samples = 15<br/>value = [11, 4]>, fillcolor="#eeaf81"] ;
513 -> 529 ;
530 [label=<entropy = 0.863<br/>samples = 7<br/>value = [5, 2]>, fillcolor="#efb388"] ;
529 -> 530 ;
531 [label=<entropy = 0.811<br/>samples = 8<br/>value = [6, 2]>, fillcolor="#eeab7b"] ;
529 -> 531 ;
532 [label=<timestamp &le; 205.5<br/>entropy = 0.555<br/>samples = 31<br/>value = [27, 4]>, fillcolor="#e99456"] ;
496 -> 532 ;
533 [label=<RPi_No &le; 101.0<br/>entropy = 0.371<br/>samples = 14<br/>value = [13, 1]>, fillcolor="#e78b48"] ;
532 -> 533 ;
534 [label=<entropy = 0.0<br/>samples = 8<br/>value = [8, 0]>, fillcolor="#e58139"] ;
533 -> 534 ;
535 [label=<entropy = 0.65<br/>samples = 6<br/>value = [5, 1]>, fillcolor="#ea9a61"] ;
533 -> 535 ;
536 [label=<RPi_No &le; 101.0<br/>entropy = 0.672<br/>samples = 17<br/>value = [14, 3]>, fillcolor="#eb9c63"] ;
532 -> 536 ;
537 [label=<entropy = 0.764<br/>samples = 9<br/>value = [7, 2]>, fillcolor="#eca572"] ;
536 -> 537 ;
538 [label=<entropy = 0.544<br/>samples = 8<br/>value = [7, 1]>, fillcolor="#e99355"] ;
536 -> 538 ;
539 [label=<timestamp &le; 213.5<br/>entropy = 0.752<br/>samples = 139<br/>value = [109, 30]>, fillcolor="#eca46f"] ;
495 -> 539 ;
540 [label=<timestamp &le; 212.5<br/>entropy = 0.761<br/>samples = 109<br/>value = [85, 24]>, fillcolor="#eca571"] ;
539 -> 540 ;
541 [label=<RPi_No &le; 101.0<br/>entropy = 0.747<br/>samples = 94<br/>value = [74, 20]>, fillcolor="#eca36f"] ;
540 -> 541 ;
542 [label=<timestamp &le; 207.5<br/>entropy = 0.713<br/>samples = 46<br/>value = [37, 9]>, fillcolor="#eba069"] ;
541 -> 542 ;
543 [label=<entropy = 0.811<br/>samples = 8<br/>value = [6, 2]>, fillcolor="#eeab7b"] ;
542 -> 543 ;
544 [label=<timestamp &le; 211.5<br/>entropy = 0.689<br/>samples = 38<br/>value = [31, 7]>, fillcolor="#eb9d66"] ;
542 -> 544 ;
545 [label=<timestamp &le; 209.5<br/>entropy = 0.65<br/>samples = 30<br/>value = [25, 5]>, fillcolor="#ea9a61"] ;
544 -> 545 ;
546 [label=<timestamp &le; 208.5<br/>entropy = 0.722<br/>samples = 15<br/>value = [12, 3]>, fillcolor="#eca06a"] ;
545 -> 546 ;
547 [label=<entropy = 0.592<br/>samples = 7<br/>value = [6, 1]>, fillcolor="#e9965a"] ;
546 -> 547 ;
548 [label=<entropy = 0.811<br/>samples = 8<br/>value = [6, 2]>, fillcolor="#eeab7b"] ;
546 -> 548 ;
549 [label=<timestamp &le; 210.5<br/>entropy = 0.567<br/>samples = 15<br/>value = [13, 2]>, fillcolor="#e99457"] ;
545 -> 549 ;
550 [label=<entropy = 0.544<br/>samples = 8<br/>value = [7, 1]>, fillcolor="#e99355"] ;
549 -> 550 ;
551 [label=<entropy = 0.592<br/>samples = 7<br/>value = [6, 1]>, fillcolor="#e9965a"] ;
549 -> 551 ;
552 [label=<entropy = 0.811<br/>samples = 8<br/>value = [6, 2]>, fillcolor="#eeab7b"] ;
544 -> 552 ;
553 [label=<timestamp &le; 211.5<br/>entropy = 0.777<br/>samples = 48<br/>value = [37, 11]>, fillcolor="#eda674"] ;
541 -> 553 ;
554 [label=<timestamp &le; 208.5<br/>entropy = 0.792<br/>samples = 42<br/>value = [32, 10]>, fillcolor="#eda877"] ;
553 -> 554 ;
555 [label=<timestamp &le; 207.5<br/>entropy = 0.742<br/>samples = 19<br/>value = [15, 4]>, fillcolor="#eca36e"] ;
554 -> 555 ;
556 [label=<entropy = 0.764<br/>samples = 9<br/>value = [7, 2]>, fillcolor="#eca572"] ;
555 -> 556 ;
557 [label=<entropy = 0.722<br/>samples = 10<br/>value = [8, 2]>, fillcolor="#eca06a"] ;
555 -> 557 ;
558 [label=<timestamp &le; 209.5<br/>entropy = 0.828<br/>samples = 23<br/>value = [17, 6]>, fillcolor="#eead7f"] ;
554 -> 558 ;
559 [label=<entropy = 0.863<br/>samples = 7<br/>value = [5, 2]>, fillcolor="#efb388"] ;
558 -> 559 ;
560 [label=<timestamp &le; 210.5<br/>entropy = 0.811<br/>samples = 16<br/>value = [12, 4]>, fillcolor="#eeab7b"] ;
558 -> 560 ;
561 [label=<entropy = 0.811<br/>samples = 8<br/>value = [6, 2]>, fillcolor="#eeab7b"] ;
560 -> 561 ;
562 [label=<entropy = 0.811<br/>samples = 8<br/>value = [6, 2]>, fillcolor="#eeab7b"] ;
560 -> 562 ;
563 [label=<entropy = 0.65<br/>samples = 6<br/>value = [5, 1]>, fillcolor="#ea9a61"] ;
553 -> 563 ;
564 [label=<RPi_No &le; 101.0<br/>entropy = 0.837<br/>samples = 15<br/>value = [11, 4]>, fillcolor="#eeaf81"] ;
540 -> 564 ;
565 [label=<entropy = 0.863<br/>samples = 7<br/>value = [5, 2]>, fillcolor="#efb388"] ;
564 -> 565 ;
566 [label=<entropy = 0.811<br/>samples = 8<br/>value = [6, 2]>, fillcolor="#eeab7b"] ;
564 -> 566 ;
567 [label=<RPi_No &le; 101.0<br/>entropy = 0.722<br/>samples = 30<br/>value = [24, 6]>, fillcolor="#eca06a"] ;
539 -> 567 ;
568 [label=<timestamp &le; 214.5<br/>entropy = 0.811<br/>samples = 16<br/>value = [12, 4]>, fillcolor="#eeab7b"] ;
567 -> 568 ;
569 [label=<entropy = 0.811<br/>samples = 8<br/>value = [6, 2]>, fillcolor="#eeab7b"] ;
568 -> 569 ;
570 [label=<entropy = 0.811<br/>samples = 8<br/>value = [6, 2]>, fillcolor="#eeab7b"] ;
568 -> 570 ;
571 [label=<timestamp &le; 214.5<br/>entropy = 0.592<br/>samples = 14<br/>value = [12, 2]>, fillcolor="#e9965a"] ;
567 -> 571 ;
572 [label=<entropy = 0.592<br/>samples = 7<br/>value = [6, 1]>, fillcolor="#e9965a"] ;
571 -> 572 ;
573 [label=<entropy = 0.592<br/>samples = 7<br/>value = [6, 1]>, fillcolor="#e9965a"] ;
571 -> 573 ;
574 [label=<RPi_No &le; 101.0<br/>entropy = 0.664<br/>samples = 81<br/>value = [67, 14]>, fillcolor="#ea9b62"] ;
494 -> 574 ;
575 [label=<timestamp &le; 216.5<br/>entropy = 0.693<br/>samples = 43<br/>value = [35, 8]>, fillcolor="#eb9e66"] ;
574 -> 575 ;
576 [label=<entropy = 0.503<br/>samples = 9<br/>value = [8, 1]>, fillcolor="#e89152"] ;
575 -> 576 ;
577 [label=<timestamp &le; 217.5<br/>entropy = 0.734<br/>samples = 34<br/>value = [27, 7]>, fillcolor="#eca26c"] ;
575 -> 577 ;
578 [label=<entropy = 0.764<br/>samples = 9<br/>value = [7, 2]>, fillcolor="#eca572"] ;
577 -> 578 ;
579 [label=<timestamp &le; 218.5<br/>entropy = 0.722<br/>samples = 25<br/>value = [20, 5]>, fillcolor="#eca06a"] ;
577 -> 579 ;
580 [label=<entropy = 0.65<br/>samples = 6<br/>value = [5, 1]>, fillcolor="#ea9a61"] ;
579 -> 580 ;
581 [label=<timestamp &le; 219.5<br/>entropy = 0.742<br/>samples = 19<br/>value = [15, 4]>, fillcolor="#eca36e"] ;
579 -> 581 ;
582 [label=<entropy = 0.722<br/>samples = 10<br/>value = [8, 2]>, fillcolor="#eca06a"] ;
581 -> 582 ;
583 [label=<entropy = 0.764<br/>samples = 9<br/>value = [7, 2]>, fillcolor="#eca572"] ;
581 -> 583 ;
584 [label=<timestamp &le; 216.5<br/>entropy = 0.629<br/>samples = 38<br/>value = [32, 6]>, fillcolor="#ea995e"] ;
574 -> 584 ;
585 [label=<entropy = 0.764<br/>samples = 9<br/>value = [7, 2]>, fillcolor="#eca572"] ;
584 -> 585 ;
586 [label=<timestamp &le; 219.5<br/>entropy = 0.579<br/>samples = 29<br/>value = [25, 4]>, fillcolor="#e99559"] ;
584 -> 586 ;
587 [label=<timestamp &le; 217.5<br/>entropy = 0.592<br/>samples = 21<br/>value = [18, 3]>, fillcolor="#e9965a"] ;
586 -> 587 ;
588 [label=<entropy = 0.592<br/>samples = 7<br/>value = [6, 1]>, fillcolor="#e9965a"] ;
587 -> 588 ;
589 [label=<timestamp &le; 218.5<br/>entropy = 0.592<br/>samples = 14<br/>value = [12, 2]>, fillcolor="#e9965a"] ;
587 -> 589 ;
590 [label=<entropy = 0.592<br/>samples = 7<br/>value = [6, 1]>, fillcolor="#e9965a"] ;
589 -> 590 ;
591 [label=<entropy = 0.592<br/>samples = 7<br/>value = [6, 1]>, fillcolor="#e9965a"] ;
589 -> 591 ;
592 [label=<entropy = 0.544<br/>samples = 8<br/>value = [7, 1]>, fillcolor="#e99355"] ;
586 -> 592 ;
593 [label=<timestamp &le; 221.5<br/>entropy = 0.752<br/>samples = 167<br/>value = [131, 36]>, fillcolor="#eca46f"] ;
493 -> 593 ;
594 [label=<RPi_No &le; 101.0<br/>entropy = 0.918<br/>samples = 12<br/>value = [8, 4]>, fillcolor="#f2c09c"] ;
593 -> 594 ;
595 [label=<entropy = 0.918<br/>samples = 6<br/>value = [4, 2]>, fillcolor="#f2c09c"] ;
594 -> 595 ;
596 [label=<entropy = 0.918<br/>samples = 6<br/>value = [4, 2]>, fillcolor="#f2c09c"] ;
594 -> 596 ;
597 [label=<RPi_No &le; 101.0<br/>entropy = 0.735<br/>samples = 155<br/>value = [123, 32]>, fillcolor="#eca26d"] ;
593 -> 597 ;
598 [label=<timestamp &le; 224.5<br/>entropy = 0.754<br/>samples = 83<br/>value = [65, 18]>, fillcolor="#eca470"] ;
597 -> 598 ;
599 [label=<timestamp &le; 223.5<br/>entropy = 0.706<br/>samples = 26<br/>value = [21, 5]>, fillcolor="#eb9f68"] ;
598 -> 599 ;
600 [label=<timestamp &le; 222.5<br/>entropy = 0.787<br/>samples = 17<br/>value = [13, 4]>, fillcolor="#eda876"] ;
599 -> 600 ;
601 [label=<entropy = 0.811<br/>samples = 8<br/>value = [6, 2]>, fillcolor="#eeab7b"] ;
600 -> 601 ;
602 [label=<entropy = 0.764<br/>samples = 9<br/>value = [7, 2]>, fillcolor="#eca572"] ;
600 -> 602 ;
603 [label=<entropy = 0.503<br/>samples = 9<br/>value = [8, 1]>, fillcolor="#e89152"] ;
599 -> 603 ;
604 [label=<timestamp &le; 227.5<br/>entropy = 0.775<br/>samples = 57<br/>value = [44, 13]>, fillcolor="#eda674"] ;
598 -> 604 ;
605 [label=<timestamp &le; 226.5<br/>entropy = 0.828<br/>samples = 23<br/>value = [17, 6]>, fillcolor="#eead7f"] ;
604 -> 605 ;
606 [label=<timestamp &le; 225.5<br/>entropy = 0.811<br/>samples = 16<br/>value = [12, 4]>, fillcolor="#eeab7b"] ;
605 -> 606 ;
607 [label=<entropy = 0.811<br/>samples = 8<br/>value = [6, 2]>, fillcolor="#eeab7b"] ;
606 -> 607 ;
608 [label=<entropy = 0.811<br/>samples = 8<br/>value = [6, 2]>, fillcolor="#eeab7b"] ;
606 -> 608 ;
609 [label=<entropy = 0.863<br/>samples = 7<br/>value = [5, 2]>, fillcolor="#efb388"] ;
605 -> 609 ;
610 [label=<timestamp &le; 228.5<br/>entropy = 0.734<br/>samples = 34<br/>value = [27, 7]>, fillcolor="#eca26c"] ;
604 -> 610 ;
611 [label=<entropy = 0.764<br/>samples = 9<br/>value = [7, 2]>, fillcolor="#eca572"] ;
610 -> 611 ;
612 [label=<timestamp &le; 229.5<br/>entropy = 0.722<br/>samples = 25<br/>value = [20, 5]>, fillcolor="#eca06a"] ;
610 -> 612 ;
613 [label=<entropy = 0.722<br/>samples = 10<br/>value = [8, 2]>, fillcolor="#eca06a"] ;
612 -> 613 ;
614 [label=<entropy = 0.722<br/>samples = 15<br/>value = [12, 3]>, fillcolor="#eca06a"] ;
612 -> 614 ;
615 [label=<timestamp &le; 222.5<br/>entropy = 0.711<br/>samples = 72<br/>value = [58, 14]>, fillcolor="#eb9f69"] ;
597 -> 615 ;
616 [label=<entropy = 0.592<br/>samples = 7<br/>value = [6, 1]>, fillcolor="#e9965a"] ;
615 -> 616 ;
617 [label=<timestamp &le; 224.5<br/>entropy = 0.722<br/>samples = 65<br/>value = [52, 13]>, fillcolor="#eca06a"] ;
615 -> 617 ;
618 [label=<timestamp &le; 223.5<br/>entropy = 0.787<br/>samples = 17<br/>value = [13, 4]>, fillcolor="#eda876"] ;
617 -> 618 ;
619 [label=<entropy = 0.811<br/>samples = 8<br/>value = [6, 2]>, fillcolor="#eeab7b"] ;
618 -> 619 ;
620 [label=<entropy = 0.764<br/>samples = 9<br/>value = [7, 2]>, fillcolor="#eca572"] ;
618 -> 620 ;
621 [label=<timestamp &le; 225.5<br/>entropy = 0.696<br/>samples = 48<br/>value = [39, 9]>, fillcolor="#eb9e67"] ;
617 -> 621 ;
622 [label=<entropy = 0.544<br/>samples = 8<br/>value = [7, 1]>, fillcolor="#e99355"] ;
621 -> 622 ;
623 [label=<timestamp &le; 227.5<br/>entropy = 0.722<br/>samples = 40<br/>value = [32, 8]>, fillcolor="#eca06a"] ;
621 -> 623 ;
624 [label=<timestamp &le; 226.5<br/>entropy = 0.787<br/>samples = 17<br/>value = [13, 4]>, fillcolor="#eda876"] ;
623 -> 624 ;
625 [label=<entropy = 0.811<br/>samples = 8<br/>value = [6, 2]>, fillcolor="#eeab7b"] ;
624 -> 625 ;
626 [label=<entropy = 0.764<br/>samples = 9<br/>value = [7, 2]>, fillcolor="#eca572"] ;
624 -> 626 ;
627 [label=<timestamp &le; 228.5<br/>entropy = 0.667<br/>samples = 23<br/>value = [19, 4]>, fillcolor="#ea9c63"] ;
623 -> 627 ;
628 [label=<entropy = 0.503<br/>samples = 9<br/>value = [8, 1]>, fillcolor="#e89152"] ;
627 -> 628 ;
629 [label=<timestamp &le; 229.5<br/>entropy = 0.75<br/>samples = 14<br/>value = [11, 3]>, fillcolor="#eca36f"] ;
627 -> 629 ;
630 [label=<entropy = 0.811<br/>samples = 8<br/>value = [6, 2]>, fillcolor="#eeab7b"] ;
629 -> 630 ;
631 [label=<entropy = 0.65<br/>samples = 6<br/>value = [5, 1]>, fillcolor="#ea9a61"] ;
629 -> 631 ;
632 [label=<timestamp &le; 231.5<br/>entropy = 0.66<br/>samples = 76<br/>value = [63, 13]>, fillcolor="#ea9b62"] ;
460 -> 632 ;
633 [label=<RPi_No &le; 101.0<br/>entropy = 0.65<br/>samples = 30<br/>value = [25, 5]>, fillcolor="#ea9a61"] ;
632 -> 633 ;
634 [label=<entropy = 0.684<br/>samples = 22<br/>value = [18, 4]>, fillcolor="#eb9d65"] ;
633 -> 634 ;
635 [label=<entropy = 0.544<br/>samples = 8<br/>value = [7, 1]>, fillcolor="#e99355"] ;
633 -> 635 ;
636 [label=<RPi_No &le; 101.0<br/>entropy = 0.667<br/>samples = 46<br/>value = [38, 8]>, fillcolor="#ea9c63"] ;
632 -> 636 ;
637 [label=<entropy = 0.65<br/>samples = 36<br/>value = [30, 6]>, fillcolor="#ea9a61"] ;
636 -> 637 ;
638 [label=<entropy = 0.722<br/>samples = 10<br/>value = [8, 2]>, fillcolor="#eca06a"] ;
636 -> 638 ;
639 [label=<timestamp &le; 239.5<br/>entropy = 0.466<br/>samples = 192<br/>value = [173, 19]>, fillcolor="#e88f4f"] ;
335 -> 639 ;
640 [label=<timestamp &le; 238.5<br/>entropy = 0.411<br/>samples = 121<br/>value = [111, 10]>, fillcolor="#e78c4b"] ;
639 -> 640 ;
641 [label=<timestamp &le; 235.5<br/>entropy = 0.439<br/>samples = 99<br/>value = [90, 9]>, fillcolor="#e88e4d"] ;
640 -> 641 ;
642 [label=<timestamp &le; 233.5<br/>entropy = 0.348<br/>samples = 46<br/>value = [43, 3]>, fillcolor="#e78a47"] ;
641 -> 642 ;
643 [label=<entropy = 0.323<br/>samples = 17<br/>value = [16, 1]>, fillcolor="#e78945"] ;
642 -> 643 ;
644 [label=<timestamp &le; 234.5<br/>entropy = 0.362<br/>samples = 29<br/>value = [27, 2]>, fillcolor="#e78a48"] ;
642 -> 644 ;
645 [label=<entropy = 0.371<br/>samples = 14<br/>value = [13, 1]>, fillcolor="#e78b48"] ;
644 -> 645 ;
646 [label=<entropy = 0.353<br/>samples = 15<br/>value = [14, 1]>, fillcolor="#e78a47"] ;
644 -> 646 ;
647 [label=<timestamp &le; 236.5<br/>entropy = 0.51<br/>samples = 53<br/>value = [47, 6]>, fillcolor="#e89152"] ;
641 -> 647 ;
648 [label=<entropy = 0.503<br/>samples = 18<br/>value = [16, 2]>, fillcolor="#e89152"] ;
647 -> 648 ;
649 [label=<timestamp &le; 237.5<br/>entropy = 0.513<br/>samples = 35<br/>value = [31, 4]>, fillcolor="#e89153"] ;
647 -> 649 ;
650 [label=<entropy = 0.523<br/>samples = 17<br/>value = [15, 2]>, fillcolor="#e89253"] ;
649 -> 650 ;
651 [label=<entropy = 0.503<br/>samples = 18<br/>value = [16, 2]>, fillcolor="#e89152"] ;
649 -> 651 ;
652 [label=<entropy = 0.267<br/>samples = 22<br/>value = [21, 1]>, fillcolor="#e68742"] ;
640 -> 652 ;
653 [label=<timestamp &le; 240.5<br/>entropy = 0.548<br/>samples = 71<br/>value = [62, 9]>, fillcolor="#e99356"] ;
639 -> 653 ;
654 [label=<entropy = 0.702<br/>samples = 21<br/>value = [17, 4]>, fillcolor="#eb9f68"] ;
653 -> 654 ;
655 [label=<timestamp &le; 241.5<br/>entropy = 0.469<br/>samples = 50<br/>value = [45, 5]>, fillcolor="#e88f4f"] ;
653 -> 655 ;
656 [label=<entropy = 0.503<br/>samples = 18<br/>value = [16, 2]>, fillcolor="#e89152"] ;
655 -> 656 ;
657 [label=<entropy = 0.449<br/>samples = 32<br/>value = [29, 3]>, fillcolor="#e88e4d"] ;
655 -> 657 ;
658 [label=<timestamp &le; 111.5<br/>entropy = 0.478<br/>samples = 719<br/>value = [645, 74]>, fillcolor="#e88f50"] ;
334 -> 658 ;
659 [label=<CosSim &le; 0.121<br/>entropy = 0.989<br/>samples = 16<br/>value = [9, 7]>, fillcolor="#f9e3d3"] ;
658 -> 659 ;
660 [label=<entropy = 0.0<br/>samples = 2<br/>value = [2, 0]>, fillcolor="#e58139"] ;
659 -> 660 ;
661 [label=<CosSim &le; 0.283<br/>entropy = 1.0<br/>samples = 14<br/>value = [7, 7]>, fillcolor="#ffffff"] ;
659 -> 661 ;
662 [label=<CosSim &le; 0.182<br/>entropy = 0.971<br/>samples = 10<br/>value = [6, 4]>, fillcolor="#f6d5bd"] ;
661 -> 662 ;
663 [label=<entropy = 0.918<br/>samples = 3<br/>value = [1, 2]>, fillcolor="#9ccef2"] ;
662 -> 663 ;
664 [label=<CosSim &le; 0.266<br/>entropy = 0.863<br/>samples = 7<br/>value = [5, 2]>, fillcolor="#efb388"] ;
662 -> 664 ;
665 [label=<CosSim &le; 0.231<br/>entropy = 0.918<br/>samples = 6<br/>value = [4, 2]>, fillcolor="#f2c09c"] ;
664 -> 665 ;
666 [label=<entropy = 0.918<br/>samples = 3<br/>value = [2, 1]>, fillcolor="#f2c09c"] ;
665 -> 666 ;
667 [label=<entropy = 0.918<br/>samples = 3<br/>value = [2, 1]>, fillcolor="#f2c09c"] ;
665 -> 667 ;
668 [label=<entropy = 0.0<br/>samples = 1<br/>value = [1, 0]>, fillcolor="#e58139"] ;
664 -> 668 ;
669 [label=<timestamp &le; 109.5<br/>entropy = 0.811<br/>samples = 4<br/>value = [1, 3]>, fillcolor="#7bbeee"] ;
661 -> 669 ;
670 [label=<entropy = 0.0<br/>samples = 1<br/>value = [0, 1]>, fillcolor="#399de5"] ;
669 -> 670 ;
671 [label=<entropy = 0.918<br/>samples = 3<br/>value = [1, 2]>, fillcolor="#9ccef2"] ;
669 -> 671 ;
672 [label=<timestamp &le; 192.5<br/>entropy = 0.454<br/>samples = 703<br/>value = [636, 67]>, fillcolor="#e88e4e"] ;
658 -> 672 ;
673 [label=<CosSim &le; 0.055<br/>entropy = 0.494<br/>samples = 537<br/>value = [479, 58]>, fillcolor="#e89051"] ;
672 -> 673 ;
674 [label=<timestamp &le; 190.0<br/>entropy = 0.149<br/>samples = 47<br/>value = [46, 1]>, fillcolor="#e6843d"] ;
673 -> 674 ;
675 [label=<entropy = 0.0<br/>samples = 43<br/>value = [43, 0]>, fillcolor="#e58139"] ;
674 -> 675 ;
676 [label=<entropy = 0.811<br/>samples = 4<br/>value = [3, 1]>, fillcolor="#eeab7b"] ;
674 -> 676 ;
677 [label=<timestamp &le; 169.0<br/>entropy = 0.519<br/>samples = 490<br/>value = [433, 57]>, fillcolor="#e89253"] ;
673 -> 677 ;
678 [label=<timestamp &le; 140.5<br/>entropy = 0.467<br/>samples = 362<br/>value = [326, 36]>, fillcolor="#e88f4f"] ;
677 -> 678 ;
679 [label=<timestamp &le; 124.5<br/>entropy = 0.584<br/>samples = 143<br/>value = [123, 20]>, fillcolor="#e99559"] ;
678 -> 679 ;
680 [label=<CosSim &le; 0.115<br/>entropy = 0.414<br/>samples = 84<br/>value = [77, 7]>, fillcolor="#e78c4b"] ;
679 -> 680 ;
681 [label=<CosSim &le; 0.073<br/>entropy = 0.764<br/>samples = 18<br/>value = [14, 4]>, fillcolor="#eca572"] ;
680 -> 681 ;
682 [label=<entropy = 0.918<br/>samples = 6<br/>value = [4, 2]>, fillcolor="#f2c09c"] ;
681 -> 682 ;
683 [label=<CosSim &le; 0.109<br/>entropy = 0.65<br/>samples = 12<br/>value = [10, 2]>, fillcolor="#ea9a61"] ;
681 -> 683 ;
684 [label=<timestamp &le; 117.0<br/>entropy = 0.503<br/>samples = 9<br/>value = [8, 1]>, fillcolor="#e89152"] ;
683 -> 684 ;
685 [label=<entropy = 0.0<br/>samples = 1<br/>value = [1, 0]>, fillcolor="#e58139"] ;
684 -> 685 ;
686 [label=<entropy = 0.544<br/>samples = 8<br/>value = [7, 1]>, fillcolor="#e99355"] ;
684 -> 686 ;
687 [label=<entropy = 0.918<br/>samples = 3<br/>value = [2, 1]>, fillcolor="#f2c09c"] ;
683 -> 687 ;
688 [label=<CosSim &le; 0.239<br/>entropy = 0.267<br/>samples = 66<br/>value = [63, 3]>, fillcolor="#e68742"] ;
680 -> 688 ;
689 [label=<entropy = 0.0<br/>samples = 29<br/>value = [29, 0]>, fillcolor="#e58139"] ;
688 -> 689 ;
690 [label=<CosSim &le; 0.255<br/>entropy = 0.406<br/>samples = 37<br/>value = [34, 3]>, fillcolor="#e78c4a"] ;
688 -> 690 ;
691 [label=<CosSim &le; 0.252<br/>entropy = 0.65<br/>samples = 18<br/>value = [15, 3]>, fillcolor="#ea9a61"] ;
690 -> 691 ;
692 [label=<CosSim &le; 0.248<br/>entropy = 0.523<br/>samples = 17<br/>value = [15, 2]>, fillcolor="#e89253"] ;
691 -> 692 ;
693 [label=<entropy = 0.918<br/>samples = 6<br/>value = [4, 2]>, fillcolor="#f2c09c"] ;
692 -> 693 ;
694 [label=<entropy = 0.0<br/>samples = 11<br/>value = [11, 0]>, fillcolor="#e58139"] ;
692 -> 694 ;
695 [label=<entropy = 0.0<br/>samples = 1<br/>value = [0, 1]>, fillcolor="#399de5"] ;
691 -> 695 ;
696 [label=<entropy = 0.0<br/>samples = 19<br/>value = [19, 0]>, fillcolor="#e58139"] ;
690 -> 696 ;
697 [label=<timestamp &le; 130.5<br/>entropy = 0.761<br/>samples = 59<br/>value = [46, 13]>, fillcolor="#eca571"] ;
679 -> 697 ;
698 [label=<RPi_No &le; 101.5<br/>entropy = 0.918<br/>samples = 24<br/>value = [16, 8]>, fillcolor="#f2c09c"] ;
697 -> 698 ;
699 [label=<CosSim &le; 0.067<br/>entropy = 0.75<br/>samples = 14<br/>value = [11, 3]>, fillcolor="#eca36f"] ;
698 -> 699 ;
700 [label=<entropy = 0.971<br/>samples = 5<br/>value = [3, 2]>, fillcolor="#f6d5bd"] ;
699 -> 700 ;
701 [label=<CosSim &le; 0.151<br/>entropy = 0.503<br/>samples = 9<br/>value = [8, 1]>, fillcolor="#e89152"] ;
699 -> 701 ;
702 [label=<entropy = 0.0<br/>samples = 6<br/>value = [6, 0]>, fillcolor="#e58139"] ;
701 -> 702 ;
703 [label=<CosSim &le; 0.192<br/>entropy = 0.918<br/>samples = 3<br/>value = [2, 1]>, fillcolor="#f2c09c"] ;
701 -> 703 ;
704 [label=<entropy = 0.0<br/>samples = 1<br/>value = [0, 1]>, fillcolor="#399de5"] ;
703 -> 704 ;
705 [label=<entropy = 0.0<br/>samples = 2<br/>value = [2, 0]>, fillcolor="#e58139"] ;
703 -> 705 ;
706 [label=<CosSim &le; 0.131<br/>entropy = 1.0<br/>samples = 10<br/>value = [5, 5]>, fillcolor="#ffffff"] ;
698 -> 706 ;
707 [label=<entropy = 0.0<br/>samples = 1<br/>value = [0, 1]>, fillcolor="#399de5"] ;
706 -> 707 ;
708 [label=<CosSim &le; 0.239<br/>entropy = 0.991<br/>samples = 9<br/>value = [5, 4]>, fillcolor="#fae6d7"] ;
706 -> 708 ;
709 [label=<CosSim &le; 0.179<br/>entropy = 0.811<br/>samples = 4<br/>value = [3, 1]>, fillcolor="#eeab7b"] ;
708 -> 709 ;
710 [label=<entropy = 1.0<br/>samples = 2<br/>value = [1, 1]>, fillcolor="#ffffff"] ;
709 -> 710 ;
711 [label=<entropy = 0.0<br/>samples = 2<br/>value = [2, 0]>, fillcolor="#e58139"] ;
709 -> 711 ;
712 [label=<CosSim &le; 0.267<br/>entropy = 0.971<br/>samples = 5<br/>value = [2, 3]>, fillcolor="#bddef6"] ;
708 -> 712 ;
713 [label=<entropy = 0.0<br/>samples = 1<br/>value = [0, 1]>, fillcolor="#399de5"] ;
712 -> 713 ;
714 [label=<entropy = 1.0<br/>samples = 4<br/>value = [2, 2]>, fillcolor="#ffffff"] ;
712 -> 714 ;
715 [label=<CosSim &le; 0.233<br/>entropy = 0.592<br/>samples = 35<br/>value = [30, 5]>, fillcolor="#e9965a"] ;
697 -> 715 ;
716 [label=<CosSim &le; 0.199<br/>entropy = 0.738<br/>samples = 24<br/>value = [19, 5]>, fillcolor="#eca26d"] ;
715 -> 716 ;
717 [label=<CosSim &le; 0.139<br/>entropy = 0.592<br/>samples = 21<br/>value = [18, 3]>, fillcolor="#e9965a"] ;
716 -> 717 ;
718 [label=<RPi_No &le; 101.5<br/>entropy = 0.391<br/>samples = 13<br/>value = [12, 1]>, fillcolor="#e78c49"] ;
717 -> 718 ;
719 [label=<entropy = 0.0<br/>samples = 10<br/>value = [10, 0]>, fillcolor="#e58139"] ;
718 -> 719 ;
720 [label=<entropy = 0.918<br/>samples = 3<br/>value = [2, 1]>, fillcolor="#f2c09c"] ;
718 -> 720 ;
721 [label=<CosSim &le; 0.147<br/>entropy = 0.811<br/>samples = 8<br/>value = [6, 2]>, fillcolor="#eeab7b"] ;
717 -> 721 ;
722 [label=<CosSim &le; 0.141<br/>entropy = 0.971<br/>samples = 5<br/>value = [3, 2]>, fillcolor="#f6d5bd"] ;
721 -> 722 ;
723 [label=<entropy = 1.0<br/>samples = 2<br/>value = [1, 1]>, fillcolor="#ffffff"] ;
722 -> 723 ;
724 [label=<entropy = 0.918<br/>samples = 3<br/>value = [2, 1]>, fillcolor="#f2c09c"] ;
722 -> 724 ;
725 [label=<entropy = 0.0<br/>samples = 3<br/>value = [3, 0]>, fillcolor="#e58139"] ;
721 -> 725 ;
726 [label=<timestamp &le; 132.5<br/>entropy = 0.918<br/>samples = 3<br/>value = [1, 2]>, fillcolor="#9ccef2"] ;
716 -> 726 ;
727 [label=<CosSim &le; 0.213<br/>entropy = 1.0<br/>samples = 2<br/>value = [1, 1]>, fillcolor="#ffffff"] ;
726 -> 727 ;
728 [label=<entropy = 0.0<br/>samples = 1<br/>value = [0, 1]>, fillcolor="#399de5"] ;
727 -> 728 ;
729 [label=<entropy = 0.0<br/>samples = 1<br/>value = [1, 0]>, fillcolor="#e58139"] ;
727 -> 729 ;
730 [label=<entropy = 0.0<br/>samples = 1<br/>value = [0, 1]>, fillcolor="#399de5"] ;
726 -> 730 ;
731 [label=<entropy = 0.0<br/>samples = 11<br/>value = [11, 0]>, fillcolor="#e58139"] ;
715 -> 731 ;
732 [label=<CosSim &le; 0.289<br/>entropy = 0.377<br/>samples = 219<br/>value = [203, 16]>, fillcolor="#e78b49"] ;
678 -> 732 ;
733 [label=<CosSim &le; 0.248<br/>entropy = 0.325<br/>samples = 202<br/>value = [190, 12]>, fillcolor="#e78946"] ;
732 -> 733 ;
734 [label=<CosSim &le; 0.248<br/>entropy = 0.371<br/>samples = 168<br/>value = [156, 12]>, fillcolor="#e78b48"] ;
733 -> 734 ;
735 [label=<timestamp &le; 158.5<br/>entropy = 0.311<br/>samples = 161<br/>value = [152, 9]>, fillcolor="#e78845"] ;
734 -> 735 ;
736 [label=<CosSim &le; 0.188<br/>entropy = 0.19<br/>samples = 103<br/>value = [100, 3]>, fillcolor="#e6853f"] ;
735 -> 736 ;
737 [label=<entropy = 0.0<br/>samples = 56<br/>value = [56, 0]>, fillcolor="#e58139"] ;
736 -> 737 ;
738 [label=<CosSim &le; 0.194<br/>entropy = 0.342<br/>samples = 47<br/>value = [44, 3]>, fillcolor="#e78a46"] ;
736 -> 738 ;
739 [label=<entropy = 0.0<br/>samples = 1<br/>value = [0, 1]>, fillcolor="#399de5"] ;
738 -> 739 ;
740 [label=<CosSim &le; 0.212<br/>entropy = 0.258<br/>samples = 46<br/>value = [44, 2]>, fillcolor="#e68742"] ;
738 -> 740 ;
741 [label=<entropy = 0.0<br/>samples = 21<br/>value = [21, 0]>, fillcolor="#e58139"] ;
740 -> 741 ;
742 [label=<CosSim &le; 0.214<br/>entropy = 0.402<br/>samples = 25<br/>value = [23, 2]>, fillcolor="#e78c4a"] ;
740 -> 742 ;
743 [label=<entropy = 1.0<br/>samples = 2<br/>value = [1, 1]>, fillcolor="#ffffff"] ;
742 -> 743 ;
744 [label=<CosSim &le; 0.23<br/>entropy = 0.258<br/>samples = 23<br/>value = [22, 1]>, fillcolor="#e68742"] ;
742 -> 744 ;
745 [label=<entropy = 0.0<br/>samples = 13<br/>value = [13, 0]>, fillcolor="#e58139"] ;
744 -> 745 ;
746 [label=<CosSim &le; 0.234<br/>entropy = 0.469<br/>samples = 10<br/>value = [9, 1]>, fillcolor="#e88f4f"] ;
744 -> 746 ;
747 [label=<entropy = 0.0<br/>samples = 1<br/>value = [0, 1]>, fillcolor="#399de5"] ;
746 -> 747 ;
748 [label=<entropy = 0.0<br/>samples = 9<br/>value = [9, 0]>, fillcolor="#e58139"] ;
746 -> 748 ;
749 [label=<timestamp &le; 167.5<br/>entropy = 0.48<br/>samples = 58<br/>value = [52, 6]>, fillcolor="#e89050"] ;
735 -> 749 ;
750 [label=<CosSim &le; 0.229<br/>entropy = 0.551<br/>samples = 47<br/>value = [41, 6]>, fillcolor="#e99356"] ;
749 -> 750 ;
751 [label=<CosSim &le; 0.224<br/>entropy = 0.629<br/>samples = 38<br/>value = [32, 6]>, fillcolor="#ea995e"] ;
750 -> 751 ;
752 [label=<CosSim &le; 0.117<br/>entropy = 0.571<br/>samples = 37<br/>value = [32, 5]>, fillcolor="#e99558"] ;
751 -> 752 ;
753 [label=<entropy = 0.0<br/>samples = 6<br/>value = [6, 0]>, fillcolor="#e58139"] ;
752 -> 753 ;
754 [label=<CosSim &le; 0.121<br/>entropy = 0.637<br/>samples = 31<br/>value = [26, 5]>, fillcolor="#ea995f"] ;
752 -> 754 ;
755 [label=<RPi_No &le; 101.0<br/>entropy = 1.0<br/>samples = 6<br/>value = [3, 3]>, fillcolor="#ffffff"] ;
754 -> 755 ;
756 [label=<entropy = 0.971<br/>samples = 5<br/>value = [3, 2]>, fillcolor="#f6d5bd"] ;
755 -> 756 ;
757 [label=<entropy = 0.0<br/>samples = 1<br/>value = [0, 1]>, fillcolor="#399de5"] ;
755 -> 757 ;
758 [label=<CosSim &le; 0.162<br/>entropy = 0.402<br/>samples = 25<br/>value = [23, 2]>, fillcolor="#e78c4a"] ;
754 -> 758 ;
759 [label=<entropy = 0.0<br/>samples = 12<br/>value = [12, 0]>, fillcolor="#e58139"] ;
758 -> 759 ;
760 [label=<timestamp &le; 163.5<br/>entropy = 0.619<br/>samples = 13<br/>value = [11, 2]>, fillcolor="#ea985d"] ;
758 -> 760 ;
761 [label=<CosSim &le; 0.168<br/>entropy = 0.439<br/>samples = 11<br/>value = [10, 1]>, fillcolor="#e88e4d"] ;
760 -> 761 ;
762 [label=<entropy = 0.918<br/>samples = 3<br/>value = [2, 1]>, fillcolor="#f2c09c"] ;
761 -> 762 ;
763 [label=<entropy = 0.0<br/>samples = 8<br/>value = [8, 0]>, fillcolor="#e58139"] ;
761 -> 763 ;
764 [label=<entropy = 1.0<br/>samples = 2<br/>value = [1, 1]>, fillcolor="#ffffff"] ;
760 -> 764 ;
765 [label=<entropy = 0.0<br/>samples = 1<br/>value = [0, 1]>, fillcolor="#399de5"] ;
751 -> 765 ;
766 [label=<entropy = 0.0<br/>samples = 9<br/>value = [9, 0]>, fillcolor="#e58139"] ;
750 -> 766 ;
767 [label=<entropy = 0.0<br/>samples = 11<br/>value = [11, 0]>, fillcolor="#e58139"] ;
749 -> 767 ;
768 [label=<RPi_No &le; 101.0<br/>entropy = 0.985<br/>samples = 7<br/>value = [4, 3]>, fillcolor="#f8e0ce"] ;
734 -> 768 ;
769 [label=<entropy = 0.918<br/>samples = 3<br/>value = [2, 1]>, fillcolor="#f2c09c"] ;
768 -> 769 ;
770 [label=<entropy = 1.0<br/>samples = 4<br/>value = [2, 2]>, fillcolor="#ffffff"] ;
768 -> 770 ;
771 [label=<entropy = 0.0<br/>samples = 34<br/>value = [34, 0]>, fillcolor="#e58139"] ;
733 -> 771 ;
772 [label=<timestamp &le; 153.0<br/>entropy = 0.787<br/>samples = 17<br/>value = [13, 4]>, fillcolor="#eda876"] ;
732 -> 772 ;
773 [label=<entropy = 0.0<br/>samples = 4<br/>value = [4, 0]>, fillcolor="#e58139"] ;
772 -> 773 ;
774 [label=<timestamp &le; 158.0<br/>entropy = 0.89<br/>samples = 13<br/>value = [9, 4]>, fillcolor="#f1b991"] ;
772 -> 774 ;
775 [label=<CosSim &le; 0.298<br/>entropy = 0.764<br/>samples = 9<br/>value = [7, 2]>, fillcolor="#eca572"] ;
774 -> 775 ;
776 [label=<CosSim &le; 0.294<br/>entropy = 0.918<br/>samples = 6<br/>value = [4, 2]>, fillcolor="#f2c09c"] ;
775 -> 776 ;
777 [label=<entropy = 0.918<br/>samples = 3<br/>value = [2, 1]>, fillcolor="#f2c09c"] ;
776 -> 777 ;
778 [label=<entropy = 0.918<br/>samples = 3<br/>value = [2, 1]>, fillcolor="#f2c09c"] ;
776 -> 778 ;
779 [label=<entropy = 0.0<br/>samples = 3<br/>value = [3, 0]>, fillcolor="#e58139"] ;
775 -> 779 ;
780 [label=<timestamp &le; 160.0<br/>entropy = 1.0<br/>samples = 4<br/>value = [2, 2]>, fillcolor="#ffffff"] ;
774 -> 780 ;
781 [label=<entropy = 0.0<br/>samples = 1<br/>value = [0, 1]>, fillcolor="#399de5"] ;
780 -> 781 ;
782 [label=<CosSim &le; 0.297<br/>entropy = 0.918<br/>samples = 3<br/>value = [2, 1]>, fillcolor="#f2c09c"] ;
780 -> 782 ;
783 [label=<entropy = 1.0<br/>samples = 2<br/>value = [1, 1]>, fillcolor="#ffffff"] ;
782 -> 783 ;
784 [label=<entropy = 0.0<br/>samples = 1<br/>value = [1, 0]>, fillcolor="#e58139"] ;
782 -> 784 ;
785 [label=<timestamp &le; 186.5<br/>entropy = 0.644<br/>samples = 128<br/>value = [107, 21]>, fillcolor="#ea9a60"] ;
677 -> 785 ;
786 [label=<CosSim &le; 0.134<br/>entropy = 0.696<br/>samples = 96<br/>value = [78, 18]>, fillcolor="#eb9e67"] ;
785 -> 786 ;
787 [label=<CosSim &le; 0.077<br/>entropy = 0.491<br/>samples = 28<br/>value = [25, 3]>, fillcolor="#e89051"] ;
786 -> 787 ;
788 [label=<timestamp &le; 182.5<br/>entropy = 0.61<br/>samples = 20<br/>value = [17, 3]>, fillcolor="#ea975c"] ;
787 -> 788 ;
789 [label=<CosSim &le; 0.065<br/>entropy = 0.811<br/>samples = 8<br/>value = [6, 2]>, fillcolor="#eeab7b"] ;
788 -> 789 ;
790 [label=<entropy = 0.811<br/>samples = 4<br/>value = [3, 1]>, fillcolor="#eeab7b"] ;
789 -> 790 ;
791 [label=<entropy = 0.811<br/>samples = 4<br/>value = [3, 1]>, fillcolor="#eeab7b"] ;
789 -> 791 ;
792 [label=<timestamp &le; 185.0<br/>entropy = 0.414<br/>samples = 12<br/>value = [11, 1]>, fillcolor="#e78c4b"] ;
788 -> 792 ;
793 [label=<entropy = 0.0<br/>samples = 7<br/>value = [7, 0]>, fillcolor="#e58139"] ;
792 -> 793 ;
794 [label=<entropy = 0.722<br/>samples = 5<br/>value = [4, 1]>, fillcolor="#eca06a"] ;
792 -> 794 ;
795 [label=<entropy = 0.0<br/>samples = 8<br/>value = [8, 0]>, fillcolor="#e58139"] ;
787 -> 795 ;
796 [label=<CosSim &le; 0.181<br/>entropy = 0.761<br/>samples = 68<br/>value = [53, 15]>, fillcolor="#eca571"] ;
786 -> 796 ;
797 [label=<RPi_No &le; 101.0<br/>entropy = 0.991<br/>samples = 9<br/>value = [4, 5]>, fillcolor="#d7ebfa"] ;
796 -> 797 ;
798 [label=<entropy = 0.811<br/>samples = 4<br/>value = [3, 1]>, fillcolor="#eeab7b"] ;
797 -> 798 ;
799 [label=<CosSim &le; 0.161<br/>entropy = 0.722<br/>samples = 5<br/>value = [1, 4]>, fillcolor="#6ab6ec"] ;
797 -> 799 ;
800 [label=<entropy = 0.918<br/>samples = 3<br/>value = [1, 2]>, fillcolor="#9ccef2"] ;
799 -> 800 ;
801 [label=<entropy = 0.0<br/>samples = 2<br/>value = [0, 2]>, fillcolor="#399de5"] ;
799 -> 801 ;
802 [label=<CosSim &le; 0.215<br/>entropy = 0.657<br/>samples = 59<br/>value = [49, 10]>, fillcolor="#ea9b61"] ;
796 -> 802 ;
803 [label=<entropy = 0.0<br/>samples = 10<br/>value = [10, 0]>, fillcolor="#e58139"] ;
802 -> 803 ;
804 [label=<timestamp &le; 173.5<br/>entropy = 0.73<br/>samples = 49<br/>value = [39, 10]>, fillcolor="#eca16c"] ;
802 -> 804 ;
805 [label=<timestamp &le; 171.5<br/>entropy = 0.918<br/>samples = 18<br/>value = [12, 6]>, fillcolor="#f2c09c"] ;
804 -> 805 ;
806 [label=<RPi_No &le; 100.5<br/>entropy = 0.985<br/>samples = 7<br/>value = [4, 3]>, fillcolor="#f8e0ce"] ;
805 -> 806 ;
807 [label=<entropy = 0.971<br/>samples = 5<br/>value = [3, 2]>, fillcolor="#f6d5bd"] ;
806 -> 807 ;
808 [label=<entropy = 1.0<br/>samples = 2<br/>value = [1, 1]>, fillcolor="#ffffff"] ;
806 -> 808 ;
809 [label=<CosSim &le; 0.244<br/>entropy = 0.845<br/>samples = 11<br/>value = [8, 3]>, fillcolor="#efb083"] ;
805 -> 809 ;
810 [label=<entropy = 0.918<br/>samples = 3<br/>value = [2, 1]>, fillcolor="#f2c09c"] ;
809 -> 810 ;
811 [label=<CosSim &le; 0.287<br/>entropy = 0.811<br/>samples = 8<br/>value = [6, 2]>, fillcolor="#eeab7b"] ;
809 -> 811 ;
812 [label=<entropy = 0.811<br/>samples = 4<br/>value = [3, 1]>, fillcolor="#eeab7b"] ;
811 -> 812 ;
813 [label=<entropy = 0.811<br/>samples = 4<br/>value = [3, 1]>, fillcolor="#eeab7b"] ;
811 -> 813 ;
814 [label=<CosSim &le; 0.295<br/>entropy = 0.555<br/>samples = 31<br/>value = [27, 4]>, fillcolor="#e99456"] ;
804 -> 814 ;
815 [label=<CosSim &le; 0.269<br/>entropy = 0.469<br/>samples = 30<br/>value = [27, 3]>, fillcolor="#e88f4f"] ;
814 -> 815 ;
816 [label=<entropy = 0.0<br/>samples = 10<br/>value = [10, 0]>, fillcolor="#e58139"] ;
815 -> 816 ;
817 [label=<timestamp &le; 178.5<br/>entropy = 0.61<br/>samples = 20<br/>value = [17, 3]>, fillcolor="#ea975c"] ;
815 -> 817 ;
818 [label=<entropy = 0.0<br/>samples = 4<br/>value = [4, 0]>, fillcolor="#e58139"] ;
817 -> 818 ;
819 [label=<CosSim &le; 0.276<br/>entropy = 0.696<br/>samples = 16<br/>value = [13, 3]>, fillcolor="#eb9e67"] ;
817 -> 819 ;
820 [label=<CosSim &le; 0.272<br/>entropy = 0.863<br/>samples = 7<br/>value = [5, 2]>, fillcolor="#efb388"] ;
819 -> 820 ;
821 [label=<entropy = 0.918<br/>samples = 3<br/>value = [2, 1]>, fillcolor="#f2c09c"] ;
820 -> 821 ;
822 [label=<entropy = 0.811<br/>samples = 4<br/>value = [3, 1]>, fillcolor="#eeab7b"] ;
820 -> 822 ;
823 [label=<timestamp &le; 184.0<br/>entropy = 0.503<br/>samples = 9<br/>value = [8, 1]>, fillcolor="#e89152"] ;
819 -> 823 ;
824 [label=<entropy = 0.0<br/>samples = 4<br/>value = [4, 0]>, fillcolor="#e58139"] ;
823 -> 824 ;
825 [label=<entropy = 0.722<br/>samples = 5<br/>value = [4, 1]>, fillcolor="#eca06a"] ;
823 -> 825 ;
826 [label=<entropy = 0.0<br/>samples = 1<br/>value = [0, 1]>, fillcolor="#399de5"] ;
814 -> 826 ;
827 [label=<RPi_No &le; 100.5<br/>entropy = 0.449<br/>samples = 32<br/>value = [29, 3]>, fillcolor="#e88e4d"] ;
785 -> 827 ;
828 [label=<entropy = 0.0<br/>samples = 12<br/>value = [12, 0]>, fillcolor="#e58139"] ;
827 -> 828 ;
829 [label=<CosSim &le; 0.208<br/>entropy = 0.61<br/>samples = 20<br/>value = [17, 3]>, fillcolor="#ea975c"] ;
827 -> 829 ;
830 [label=<entropy = 0.0<br/>samples = 2<br/>value = [2, 0]>, fillcolor="#e58139"] ;
829 -> 830 ;
831 [label=<timestamp &le; 190.5<br/>entropy = 0.65<br/>samples = 18<br/>value = [15, 3]>, fillcolor="#ea9a61"] ;
829 -> 831 ;
832 [label=<CosSim &le; 0.253<br/>entropy = 0.764<br/>samples = 9<br/>value = [7, 2]>, fillcolor="#eca572"] ;
831 -> 832 ;
833 [label=<CosSim &le; 0.232<br/>entropy = 0.863<br/>samples = 7<br/>value = [5, 2]>, fillcolor="#efb388"] ;
832 -> 833 ;
834 [label=<entropy = 0.811<br/>samples = 4<br/>value = [3, 1]>, fillcolor="#eeab7b"] ;
833 -> 834 ;
835 [label=<entropy = 0.918<br/>samples = 3<br/>value = [2, 1]>, fillcolor="#f2c09c"] ;
833 -> 835 ;
836 [label=<entropy = 0.0<br/>samples = 2<br/>value = [2, 0]>, fillcolor="#e58139"] ;
832 -> 836 ;
837 [label=<timestamp &le; 191.5<br/>entropy = 0.503<br/>samples = 9<br/>value = [8, 1]>, fillcolor="#e89152"] ;
831 -> 837 ;
838 [label=<entropy = 0.0<br/>samples = 3<br/>value = [3, 0]>, fillcolor="#e58139"] ;
837 -> 838 ;
839 [label=<entropy = 0.65<br/>samples = 6<br/>value = [5, 1]>, fillcolor="#ea9a61"] ;
837 -> 839 ;
840 [label=<timestamp &le; 198.5<br/>entropy = 0.304<br/>samples = 166<br/>value = [157, 9]>, fillcolor="#e68844"] ;
672 -> 840 ;
841 [label=<entropy = 0.0<br/>samples = 36<br/>value = [36, 0]>, fillcolor="#e58139"] ;
840 -> 841 ;
842 [label=<RPi_No &le; 100.5<br/>entropy = 0.363<br/>samples = 130<br/>value = [121, 9]>, fillcolor="#e78a48"] ;
840 -> 842 ;
843 [label=<entropy = 0.0<br/>samples = 24<br/>value = [24, 0]>, fillcolor="#e58139"] ;
842 -> 843 ;
844 [label=<timestamp &le; 205.5<br/>entropy = 0.419<br/>samples = 106<br/>value = [97, 9]>, fillcolor="#e78d4b"] ;
842 -> 844 ;
845 [label=<CosSim &le; 0.097<br/>entropy = 0.722<br/>samples = 15<br/>value = [12, 3]>, fillcolor="#eca06a"] ;
844 -> 845 ;
846 [label=<entropy = 0.0<br/>samples = 1<br/>value = [1, 0]>, fillcolor="#e58139"] ;
845 -> 846 ;
847 [label=<CosSim &le; 0.273<br/>entropy = 0.75<br/>samples = 14<br/>value = [11, 3]>, fillcolor="#eca36f"] ;
845 -> 847 ;
848 [label=<CosSim &le; 0.195<br/>entropy = 0.779<br/>samples = 13<br/>value = [10, 3]>, fillcolor="#eda774"] ;
847 -> 848 ;
849 [label=<RPi_No &le; 101.5<br/>entropy = 0.863<br/>samples = 7<br/>value = [5, 2]>, fillcolor="#efb388"] ;
848 -> 849 ;
850 [label=<entropy = 1.0<br/>samples = 2<br/>value = [1, 1]>, fillcolor="#ffffff"] ;
849 -> 850 ;
851 [label=<entropy = 0.722<br/>samples = 5<br/>value = [4, 1]>, fillcolor="#eca06a"] ;
849 -> 851 ;
852 [label=<CosSim &le; 0.24<br/>entropy = 0.65<br/>samples = 6<br/>value = [5, 1]>, fillcolor="#ea9a61"] ;
848 -> 852 ;
853 [label=<entropy = 0.0<br/>samples = 1<br/>value = [1, 0]>, fillcolor="#e58139"] ;
852 -> 853 ;
854 [label=<entropy = 0.722<br/>samples = 5<br/>value = [4, 1]>, fillcolor="#eca06a"] ;
852 -> 854 ;
855 [label=<entropy = 0.0<br/>samples = 1<br/>value = [1, 0]>, fillcolor="#e58139"] ;
847 -> 855 ;
856 [label=<timestamp &le; 219.5<br/>entropy = 0.351<br/>samples = 91<br/>value = [85, 6]>, fillcolor="#e78a47"] ;
844 -> 856 ;
857 [label=<entropy = 0.0<br/>samples = 32<br/>value = [32, 0]>, fillcolor="#e58139"] ;
856 -> 857 ;
858 [label=<timestamp &le; 239.0<br/>entropy = 0.474<br/>samples = 59<br/>value = [53, 6]>, fillcolor="#e88f4f"] ;
856 -> 858 ;
859 [label=<timestamp &le; 221.5<br/>entropy = 0.516<br/>samples = 52<br/>value = [46, 6]>, fillcolor="#e89153"] ;
858 -> 859 ;
860 [label=<entropy = 0.918<br/>samples = 3<br/>value = [2, 1]>, fillcolor="#f2c09c"] ;
859 -> 860 ;
861 [label=<timestamp &le; 225.0<br/>entropy = 0.475<br/>samples = 49<br/>value = [44, 5]>, fillcolor="#e88f50"] ;
859 -> 861 ;
862 [label=<entropy = 0.0<br/>samples = 8<br/>value = [8, 0]>, fillcolor="#e58139"] ;
861 -> 862 ;
863 [label=<timestamp &le; 227.5<br/>entropy = 0.535<br/>samples = 41<br/>value = [36, 5]>, fillcolor="#e99254"] ;
861 -> 863 ;
